192 50
the 0.31489 0.018668 0.33429 -0.23224 -0.045684 -0.18824 0.080983 -0.012681 -0.42663 -0.13175 0.1382 0.26811 -0.096157 -0.058161 -0.19341 -0.15467 0.21247 -0.38022 0.020154 -0.20313 0.21842 -0.40627 0.27458 -0.2191 -0.10828 -0.048465 0.0007602 -0.13914 -0.1479 0.17274 -0.20565 0.2906 0.03429 0.22836 -0.090505 0.14489 0.20487 -0.16588 -0.16744 0.10276 -0.061449 0.24042 0.015819 0.23291 -0.042274 -0.024516 0.15416 0.041091 0.087416 -0.061748 
to 0.36376 -0.058903 0.62464 0.018612 -0.12685 -0.034827 -0.31876 0.15541 -0.47664 0.13366 0.30087 0.35252 0.0049172 0.19519 -0.0011655 -0.14203 0.13229 -0.26132 0.053622 -0.15103 0.047493 -0.28199 0.23717 -0.038466 -0.14433 -0.2391 -0.10035 -0.22516 0.31359 -0.040844 0.006987 0.58065 0.19734 0.18399 0.018256 -0.025518 0.16747 -0.051529 -0.18331 -0.062262 0.050168 0.076183 0.090013 -0.12656 0.056205 0.27031 0.13606 0.16644 -0.076986 0.032761 
is -0.27181 0.1353 0.25919 -0.21492 0.040797 -0.40184 0.00087415 0.17202 -0.0075764 0.098728 -0.11117 0.12511 -0.34706 -0.24105 -0.44983 -0.016035 -0.044893 -0.060648 -0.078658 -0.21253 0.18906 0.053424 -0.060284 0.18698 0.077569 -0.15164 -0.060217 0.12234 0.16924 -0.13081 0.014472 0.25327 0.33143 -0.12473 0.016332 -0.083214 -0.45685 -0.15465 0.078875 0.24744 0.20476 -0.28727 0.30349 0.18601 -0.00062993 -0.0020936 0.32135 -0.11698 -0.068204 -0.29992 
Mary 0.20351 -0.15048 0.40194 -0.13854 -0.3274 -0.038779 -0.0093152 0.089217 -0.40062 -0.035472 0.41122 0.50724 0.034349 0.21492 -0.12424 0.048458 0.013787 -0.049612 -0.08224 -0.027771 0.13934 -0.14239 0.27096 0.29027 -0.23315 -0.11158 0.03879 -0.030673 0.10622 0.093649 0.049357 0.4935 0.15904 -0.031928 0.0095812 0.065007 0.31277 -0.29539 -0.28273 0.016807 0.13412 0.071567 0.40332 -0.023383 0.11902 0.21188 0.23581 0.38032 -0.21062 -0.078908 
went 0.15495 -0.30674 0.45616 -0.18289 -0.27017 -0.084781 -0.11515 0.076103 -0.31552 0.026277 0.39529 0.36643 0.059957 -0.011367 -0.17665 -0.14701 0.0090435 -0.14825 0.064309 -0.07502 0.086606 -0.25412 0.085482 -0.038587 -0.3234 -0.017019 -0.089944 -0.0035462 0.23949 -0.032748 0.091691 0.66369 0.1784 0.06593 -0.072845 -0.16503 0.31118 -0.19248 -0.32985 -0.091292 0.18009 0.18478 0.17942 -0.061079 0.018092 0.25689 0.20393 0.16798 -0.24212 0.14112 
John 0.51446 -0.25242 0.12041 -0.4569 -0.23727 -0.156 -0.1601 0.2887 -0.2388 0.33627 0.45006 0.33727 -0.15014 0.050219 -0.46903 0.10013 -0.11668 -0.081166 0.060548 -0.25068 -0.20802 -0.08124 -0.063872 0.18111 -0.25664 0.077804 -0.047499 -0.12947 -0.093526 -0.19591 0.14858 0.40697 0.2897 0.080449 0.30633 0.40104 0.20074 -0.39563 0.028332 -0.066673 0.1859 -0.077582 0.27122 0.44939 -0.2364 0.24241 0.17998 0.14212 -0.14826 0.10717 
Daniel 0.43436 -0.2379 0.13541 -0.54639 -0.24278 -0.20702 -0.15896 0.2981 -0.28296 0.17138 0.49859 0.46543 -0.23314 0.056675 -0.51389 0.21176 -0.04775 0.070693 0.048424 -0.27016 -0.1931 -0.060496 -0.041689 0.077056 -0.23692 0.17079 -0.07178 0.0031026 -0.15535 -0.21329 0.17113 0.41714 0.23618 0.011764 0.31145 0.38057 0.27634 -0.38063 -0.013776 -0.089927 0.1313 -0.10391 0.29122 0.4588 -0.30177 0.1478 0.20842 0.17461 -0.21007 0.0638 
Sandra 0.43 -0.22247 0.11888 -0.51151 -0.30221 -0.062166 -0.15078 0.35478 -0.29784 0.22356 0.48919 0.49864 -0.29011 0.090242 -0.3767 0.19023 0.025394 0.035953 0.078819 -0.2155 -0.11235 -0.071298 -0.021726 0.13762 -0.26837 0.12682 -0.065317 -0.056364 -0.010678 -0.24377 0.11082 0.37765 0.31624 -0.0025182 0.3893 0.36219 0.18444 -0.43559 -0.022696 -0.1518 0.1586 -0.24331 0.30816 0.44588 -0.20823 0.1742 0.21726 0.18763 -0.12213 0.072162 
kitchen -0.09696 0.05308 0.27666 0.22596 -0.04302 -0.24632 -0.044604 0.16243 -0.19319 -0.055949 0.1188 0.36243 -0.20507 -0.21979 -0.0083539 -0.25812 0.076777 -0.38406 0.28311 -0.067336 0.183 -0.52018 -0.062029 -0.092792 0.037291 0.068886 -0.1264 -0.11406 0.065027 -0.035582 -0.077843 0.47018 0.16323 0.14323 -0.088229 -0.040156 0.020096 -0.14628 -0.12702 -0.18429 -0.068689 -0.14391 0.23339 0.10581 0.086308 0.2137 0.10777 0.2999 -0.29397 0.15168 
of -0.019982 0.31058 0.1338 -0.28685 0.18342 -0.73286 -0.11861 0.0356 -0.13358 -0.22791 -0.21515 0.21182 -0.11056 -0.12822 -0.10852 -0.60861 0.039388 0.040198 0.070269 -0.38638 0.45412 0.36923 0.068142 0.06564 -0.2456 -0.26878 -0.18747 -0.45321 -0.43898 0.059675 -0.40931 -0.12716 0.26706 -0.046351 0.16549 -0.043313 -0.27315 0.45195 0.32717 0.1603 0.26713 -0.57809 0.30809 0.077685 -0.08296 0.10046 0.44211 0.17026 0.51231 0.010412 
bedroom -0.052285 0.021587 0.26137 0.039615 -0.19408 -0.23161 0.011371 0.22375 -0.077827 -0.11546 0.096487 0.35351 -0.21911 -0.051497 -0.11683 -0.17173 -0.0783 -0.32159 0.28263 -0.052263 0.23027 -0.45545 0.041999 -0.16675 -0.073702 -0.10311 -0.17536 0.0077569 0.084012 -0.0042914 -0.15949 0.47814 0.08406 0.16544 -0.18106 -0.0033618 -0.082451 -0.23597 -0.27767 -0.14806 -0.12406 -0.10396 0.15377 0.094473 -0.0090504 0.2028 0.13213 0.15454 -0.16325 0.26344 
office -0.082851 0.084901 0.13546 -0.082218 -0.2935 -0.37614 -0.026591 0.16383 -0.20115 -0.089754 0.15074 0.48775 -0.2277 0.037521 -0.13985 -0.18469 -0.21765 -0.35492 0.19964 -0.14625 0.17398 -0.27499 0.16428 -0.0054259 -0.060867 -0.14598 0.03014 -0.0062721 0.060493 0.10132 -0.17195 0.42124 0.061983 0.19813 -0.055639 0.12965 -0.0084533 -0.20708 -0.013986 -0.12372 -0.10397 -0.0051393 0.2563 0.10781 0.12912 0.0996 0.077837 0.3498 -0.087504 0.23557 
garden 0.39764 0.11013 0.33297 -0.1401 -0.012901 -0.20734 -0.0055302 0.2043 0.089648 0.22314 0.046208 0.28559 -0.23527 -0.21175 -0.24921 0.039003 0.11848 -0.42526 0.10278 -0.086956 0.21981 -0.51714 -0.19529 -0.1204 0.041095 -0.007547 -0.22966 -0.028832 0.025622 -0.037922 -0.19363 0.27801 0.28477 0.1218 0.24847 0.068936 0.059917 -0.20589 -0.0093731 -0.3094 -0.15577 -0.24264 0.24137 0.19305 0.068573 0.17029 0.044509 0.2541 -0.05388 0.19752 
hallway 0.46527 0.243 0.15074 -0.41047 -0.1305 -0.28867 -0.099734 0.121 0.090043 0.24755 0.1389 0.58207 -0.17209 -0.18551 -0.15796 -0.017133 -0.16369 -0.40385 0.044609 -0.01913 0.13597 -0.21168 0.0011271 0.071828 0.083199 -0.091435 -0.19451 -0.10189 0.068962 -0.0066952 -0.21051 0.28686 0.29493 0.1599 0.18453 0.21833 0.10177 -0.27019 0.1155 -0.2536 -0.18389 -0.14695 0.30574 0.26117 0.095322 0.067216 0.061264 0.28715 0.07374 0.24795 
bathroom 0.49249 0.1821 0.098854 -0.31465 -0.12352 -0.32622 -0.072241 0.16421 0.07417 0.19707 0.12146 0.5729 -0.19798 -0.11581 -0.24612 -0.053337 -0.24494 -0.45844 0.0021162 -0.061576 0.19793 -0.14749 0.0020763 0.070035 -0.02067 -0.045804 -0.18565 -0.018387 0.013616 0.02297 -0.18074 0.21286 0.26731 0.16132 0.20956 0.22064 0.040898 -0.2013 0.089159 -0.30735 -0.15587 -0.15868 0.27583 0.18753 0.034907 0.086734 0.030428 0.26039 0.009743 0.24081 
The -0.032584 -0.055457 0.13985 -0.61501 0.071867 -0.97352 0.22977 -0.2999 -0.32663 -0.21117 -0.47917 -0.057971 -0.40797 -0.4921 -0.10634 -0.29721 -0.12424 -0.081409 -0.0045329 -0.18889 0.36147 -0.13858 0.34112 0.10068 -0.10189 -0.20062 -0.072319 -0.29657 -0.23031 0.34283 -0.3151 0.043993 0.086862 0.025107 0.046229 0.15335 -0.0053808 0.20236 0.17967 0.054094 -0.068675 -0.30432 0.025739 0.091966 -0.51268 -0.01502 0.41713 0.23985 0.18425 -0.074272 
Where -0.023774 -0.22493 0.19557 -0.12996 -0.0077297 -0.44646 -0.25729 -0.0349 -0.15255 0.1136 0.24449 0.3845 -0.27904 0.20485 0.096832 -0.66443 -0.36438 -0.26552 0.090296 -0.35148 0.016839 -0.51148 -0.50072 -0.41616 -0.43758 0.16138 -0.044562 -0.46571 0.26104 -0.25293 0.22164 0.76153 0.14487 0.2486 0.31909 -0.24508 0.19405 -0.060849 -0.42833 -0.22885 0.11882 0.28865 0.018609 -0.014736 -0.1896 0.29988 -0.047594 -0.17221 -0.20543 0.078921 
moved 0.10418 -0.28551 0.42956 -0.16623 -0.26753 -0.040201 -0.12517 0.084738 -0.26794 0.040996 0.45408 0.3381 -0.026938 0.0064558 -0.14566 -0.23158 -0.050443 -0.11564 0.078095 -0.1313 0.041983 -0.22845 0.030778 -0.085845 -0.22151 -0.14658 -0.027763 -0.013993 0.14481 0.016686 -0.029176 0.56462 0.041271 -0.021622 -0.072954 -0.19587 0.25428 -0.21037 -0.43566 -0.13097 0.14875 0.14577 0.24441 -0.060523 0.02996 0.33651 0.31062 0.29365 -0.34101 0.15744 
travelled 0.22372 -0.27002 0.43133 -0.15155 -0.25262 -0.020298 -0.027208 0.12362 -0.25409 -0.012727 0.42939 0.37163 0.028549 0.044348 -0.14659 -0.15632 0.08419 -0.037991 -0.0054326 -0.087955 0.078392 -0.30069 0.035611 -0.16344 -0.23884 -0.11488 -0.0043063 -0.12871 0.17023 -0.017825 -0.012005 0.59456 0.07549 0.0886 -0.025131 -0.062636 0.17654 -0.29585 -0.32753 -0.024007 0.21169 0.07516 0.15775 -0.12084 0.024495 0.30074 0.27924 0.088605 -0.26568 0.085329 
journeyed 0.16535 -0.3655 0.45008 -0.10382 -0.23975 -0.065136 -0.075693 0.098494 -0.24794 -0.071425 0.42586 0.44494 -0.027945 -0.09675 -0.15218 -0.16674 -0.076851 -0.13958 0.11525 -0.059435 0.1374 -0.21752 0.060969 -0.086198 -0.18192 -0.033889 -0.036898 -0.059284 0.15567 -0.028594 0.0082065 0.53454 0.082888 0.014109 -0.0804 -0.085108 0.26104 -0.33851 -0.32832 -0.088023 0.2165 0.1752 0.13268 -0.009082 0.010316 0.25802 0.28483 0.16903 -0.30282 0.20773 
back 0.2154 -0.36073 0.50638 -0.093237 -0.2909 -0.12621 -0.052146 0.096172 -0.20195 -0.0014867 0.43704 0.351 -0.009005 0.0093529 -0.14663 -0.13037 -0.041161 -0.039409 0.023718 -0.1221 0.031506 -0.31821 0.00627 -0.14602 -0.20388 -0.084437 -0.055432 -0.094836 0.25791 0.016629 0.00075839 0.60205 0.019364 0.012588 -0.0092371 -0.10361 0.21767 -0.32684 -0.37546 -0.069623 0.16267 0.12508 0.20172 -0.071009 -0.033673 0.29035 0.20355 0.29537 -0.36626 0.068168 
a -0.35534 0.01531 0.1926 -0.3122 0.12745 -0.41487 0.04275 0.13693 0.52205 0.1342 -0.10586 0.10248 -0.38213 0.35133 -0.60585 -0.44986 -0.16622 -0.19643 -0.16705 -0.41689 0.24456 0.55249 -0.003085 0.6888 -0.28032 -0.27007 -0.26855 -0.0082041 0.062695 -0.080614 -0.29259 0.07129 0.60499 -0.16419 0.32082 -0.61466 -0.54686 -0.23508 0.17373 0.45589 0.26558 -0.031781 0.11676 0.23817 0.38606 -0.075272 0.31613 -0.193 -0.34936 -0.37622 
in -0.017898 0.071832 0.11308 -0.33901 -0.60083 -0.3792 0.25272 0.10359 -0.57728 0.036613 -0.10429 0.27417 0.25623 -0.26895 0.22369 -0.2986 0.056566 0.31423 0.35277 -0.33715 0.62375 -0.11081 -0.42628 0.093941 -0.23543 0.0023004 -0.23275 0.38635 -0.21296 0.030656 -0.2867 0.35579 0.071985 -0.41502 -0.33897 -0.016796 0.16246 -0.44245 0.078451 0.47301 0.77225 0.02912 -0.01518 0.71937 0.50862 -0.36736 -0.056609 0.12329 -0.46845 0.22968 
apple 0.5797 -0.21931 0.314 -0.29778 -0.087515 -0.045731 -0.29578 0.22739 -0.15976 0.23328 0.49853 0.50946 0.22883 -0.47038 -0.29073 -0.20516 0.35592 -0.40986 -0.086911 0.031632 0.17907 -0.1323 0.23253 -0.024986 -0.489 -0.20329 -0.28997 -0.16243 0.079181 0.21862 0.0090269 -0.12236 -0.11414 -0.15798 0.32862 0.28582 0.33204 -0.19413 -0.68623 0.18071 -0.20981 -0.31001 0.22691 -0.036512 -0.0012208 -0.13487 -0.08345 0.019174 -0.64311 -0.15394 
football 0.61638 -0.37954 0.71365 -0.45361 0.036566 0.01695 -0.137 0.25025 -0.098184 0.2453 0.45069 0.37838 0.050425 -0.36434 -0.60579 -0.025406 0.30048 -0.31866 -0.013646 -0.25633 0.11785 -0.36897 0.11565 -0.068604 -0.4698 -0.20377 -0.19526 -0.081311 -0.025164 0.26796 0.030503 -0.29207 -0.11163 0.01607 0.40009 -0.031435 0.51911 -0.085271 -0.34937 0.049916 -0.024252 -0.21585 0.22026 0.032391 0.16639 -0.090765 -0.22404 0.08258 -0.45844 0.057227 
milk 0.68888 -0.36085 0.49092 -0.3354 0.24879 0.10953 -0.32013 0.22107 -0.18368 0.21193 0.37247 0.45982 0.16181 -0.4828 -0.44875 -0.13979 0.20143 -0.28759 0.032319 -0.13149 0.014404 -0.26834 0.2234 0.003719 -0.40482 -0.12028 -0.286 -0.15083 -0.050257 0.2833 0.019282 0.0022631 -0.058582 -0.33268 0.33673 0.082788 0.17238 0.011652 -0.36809 0.12596 -0.26705 -0.015573 0.060324 0.22913 0.072897 0.0059146 -0.052743 0.47098 -0.6628 -0.013862 
there 0.65037 -0.30264 0.53128 -0.44152 -0.11898 0.15795 -0.088917 0.43901 0.024681 0.098406 0.46977 0.30664 -0.0013993 -0.32618 -0.34813 -0.095381 0.54791 -0.3485 0.12004 0.021846 0.20168 -0.1808 0.15664 -0.092927 -0.29179 -0.060766 -0.35768 -0.027694 0.13412 0.13231 -0.030692 0.19298 0.014405 -0.40633 0.15934 0.083447 0.093061 -0.026503 -0.35744 0.17151 -0.14762 -0.25667 -0.16638 0.051011 -0.0092478 0.0049977 0.036942 0.029265 -0.51907 0.16467 
Is 0.37863 0.47832 0.44868 -0.58454 -0.1478 -0.066813 -0.17531 0.13114 -0.84457 0.043251 -0.1984 -0.0049731 -0.025502 -0.13809 0.53763 -0.21811 0.03732 0.29117 0.24369 -0.68188 0.76051 -0.2002 0.0098351 0.095985 0.066743 -0.46136 -0.086729 0.02429 -0.22617 -0.035973 -0.072987 0.24171 -0.049628 -0.10584 -0.42687 0.41289 -0.0036993 -0.55017 -0.099927 0.6658 0.52668 0.35612 -0.067248 0.75699 -0.025553 -0.29768 0.031702 0.049313 0.10136 -0.03643 
What -0.21002 0.17812 0.49047 -0.262 0.19789 0.098575 0.33412 0.59874 0.24177 -0.043856 -0.36962 0.65395 -0.35845 -0.2303 -0.085703 -0.43495 -0.29742 -0.21939 -0.62132 0.29905 0.12664 0.079149 0.43286 0.31275 -0.32338 -0.53055 -0.21205 -0.028295 -0.12192 -0.33336 0.0081464 0.013001 0.012981 -0.33534 0.48436 0.043955 -0.093046 -0.13039 0.17715 0.052568 0.46069 0.10654 0.15812 -0.16014 0.11043 -0.053401 0.29613 0.27739 -0.28243 -0.53521 
Bill 0.064162 -0.544 0.54357 0.67116 -0.39757 -0.024448 0.25683 0.3232 -0.40517 -0.1966 -0.13169 0.51527 0.098091 -0.036814 0.10708 -0.011341 0.076916 -0.46025 0.049794 -0.24543 0.3754 0.36199 0.30867 0.32055 -0.66232 -0.42382 0.1942 -0.32588 -0.51416 0.47035 -0.32744 0.408 0.35692 -0.011823 -0.59013 -0.0562 0.44972 -0.35847 -0.43675 0.07483 -0.13811 0.43711 0.56046 -0.29231 0.081551 -0.28168 -0.13697 0.27481 -0.52558 0.23793 
Fred 0.069226 -0.41194 0.43706 0.67568 -0.36103 -0.015615 0.22674 0.39644 -0.53659 -0.30035 0.028536 0.3298 0.0040412 -0.18733 0.22788 0.0011036 0.1231 -0.46362 -0.077165 -0.25522 0.34172 0.43531 0.43395 0.46116 -0.70858 -0.52451 0.14664 -0.37961 -0.52141 0.55416 -0.22551 0.49324 0.28793 0.05642 -0.51323 -0.067803 0.4651 -0.36171 -0.34022 0.077457 -0.068629 0.35927 0.57526 -0.22346 0.15237 -0.24353 -0.16871 0.26651 -0.41272 0.25255 
and -0.20547 0.083516 0.20454 -0.5167 -0.97318 -0.44675 -0.21982 0.081684 -0.28331 0.40386 -0.23459 0.57292 0.19647 -0.33612 0.10702 -0.063832 -0.16081 0.1413 -0.4939 -0.7038 0.61861 0.0066818 -0.4241 -0.0065543 0.024551 0.27417 -0.23036 -0.12178 0.75384 -0.43169 -0.13018 0.35094 0.32156 0.11277 0.88072 0.020263 0.15522 -0.062959 -0.12822 -0.13082 -0.42094 0.19528 0.15658 0.10701 -0.0068686 0.55865 0.22618 0.30907 0.092412 -0.48201 
no 0.29933 0.65597 0.37566 -0.54608 -0.23036 -0.31749 -0.19031 -0.039078 -0.64766 -0.11638 -0.025487 0.049896 0.065631 -0.1924 0.29058 0.058935 0.13322 0.28064 0.37578 -0.59617 0.75993 -0.19189 -0.19136 0.049341 0.0024844 -0.33909 -0.26938 0.054694 -0.55402 -0.095339 -0.076474 0.21101 0.096261 0.033376 -0.19333 0.27665 0.31907 -0.34022 -0.023019 0.55399 0.62238 0.29496 -0.19242 0.63787 0.23016 -0.26855 0.044194 0.029287 0.094182 -0.19315 
yes 0.49583 0.62787 0.45764 -0.52674 -0.10778 -0.19378 -0.10512 0.067284 -0.59459 -0.13281 0.002558 -0.11406 0.12803 -0.30182 0.3266 0.0058418 0.039464 0.10657 0.3189 -0.59285 0.69957 -0.1285 -0.21969 -0.11559 -0.12778 -0.29812 -0.34112 0.032017 -0.51927 -0.2451 -0.097031 0.34478 0.061944 0.12095 -0.4031 0.30704 0.25138 -0.34616 0.011571 0.65947 0.47863 0.491 -0.14006 0.44688 0.042352 -0.36769 -0.0076648 -0.082131 0.052376 -0.20161 
west -0.15123 0.086724 0.14936 -0.33817 0.040624 -0.80371 0.0040208 0.087359 -0.14286 -0.065477 -0.3765 0.01456 -0.17919 -0.36105 -0.28656 -0.29512 -0.065605 0.12952 0.067988 -0.037724 0.2785 -0.20267 0.14324 0.50001 -0.050643 -0.2991 -0.31833 -0.10227 -0.27642 0.010055 -0.38808 0.23738 0.38912 -0.031731 -0.14997 0.090363 -0.13343 0.20325 0.002249 -0.33633 -0.18985 -0.50702 0.024315 -0.0049511 -0.21158 0.13316 0.22939 0.40949 0.071361 0.15858 
north -0.14088 0.20045 0.17305 -0.17943 -0.0097402 -0.7535 -0.042464 0.13358 -0.12406 -0.13349 -0.31344 0.010518 -0.15309 -0.46424 -0.29695 -0.31314 -0.017366 -0.023142 0.045224 -0.0082521 0.38346 -0.19052 0.088292 0.32636 -0.0088999 -0.2758 -0.2805 -0.14676 -0.16169 -0.099758 -0.34946 0.26458 0.42414 0.055925 -0.18611 0.13648 -0.19738 0.1474 0.059157 -0.2276 -0.16711 -0.43396 0.0029483 -0.022983 -0.24542 0.14288 0.1772 0.38176 0.12913 0.23113 
Bernhard -0.14143 0.14255 0.18828 -0.28812 0.26834 -0.68724 0.11553 0.023103 0.19202 0.23011 -0.44247 -0.21943 -0.21974 -0.1571 -0.60251 -0.090875 -0.27574 -0.42707 0.084263 -0.22998 0.40289 0.23398 0.21376 0.57767 -0.32962 -0.22592 -0.29472 -0.070511 0.17973 -0.33142 0.33545 0.1967 0.49392 0.035072 0.20198 -0.43212 -0.19165 -0.52466 -0.22697 0.23715 0.012451 0.0022831 -0.25833 -0.0048454 0.17817 -0.19611 0.13163 0.20683 -0.1881 -0.1768 
Julius -0.29789 0.12176 0.33577 -0.17722 -0.022334 -0.76209 -0.097887 0.032065 0.082401 0.12773 -0.54252 -0.25819 -0.33965 -0.014643 -0.48953 -0.1815 -0.081532 -0.54415 0.051382 -0.0852 0.28017 0.3075 0.21788 0.49814 -0.2432 -0.24013 -0.42122 -0.20635 0.095889 -0.1937 0.30645 0.25005 0.47261 -0.088941 0.40282 -0.28584 -0.35296 -0.39433 -0.16657 0.24902 -0.047207 0.23806 -0.20327 0.0094873 0.070852 -0.2109 0.10136 -0.06679 -0.27445 -0.19321 
Lily -0.123 0.0040481 0.33604 -0.23699 -0.10684 -0.63347 -0.086715 0.037887 0.1063 0.10572 -0.55821 -0.30265 -0.32604 -0.18622 -0.52244 -0.12758 -0.29721 -0.48217 0.15627 0.049526 0.31578 0.20844 0.048449 0.73368 -0.14376 -0.1871 -0.14249 -0.22246 0.033292 -0.27567 0.22049 0.1605 0.58702 0.023042 0.23672 -0.47567 -0.34413 -0.34804 -0.21441 0.45551 -0.045187 0.070981 -0.13488 0.12163 0.20433 -0.29988 0.18935 0.040002 -0.21313 -0.26121 
Greg -0.18419 -0.065365 0.25148 -0.19795 -0.052346 -0.58875 0.045437 0.037071 0.17134 0.20649 -0.53009 -0.20233 -0.25366 -0.20868 -0.61241 -0.10664 -0.21176 -0.47896 0.047676 -0.12743 0.27499 0.34625 0.24029 0.56054 -0.15373 -0.2304 -0.32723 -0.048484 -0.044428 -0.32399 -0.054861 0.3518 0.44384 0.017761 0.41971 -0.4713 -0.49707 -0.41084 -0.24992 0.24969 0.028605 0.26574 -0.18882 -0.062304 0.15745 -0.28359 0.29395 0.10566 -0.17774 -0.12843 
Brian -0.23618 0.016316 0.28996 -0.19737 0.022127 -0.57809 0.14916 -0.063907 0.06009 0.19769 -0.55135 -0.30028 -0.23252 -0.064682 -0.59202 -0.12396 -0.20861 -0.39346 0.14332 -0.16518 0.18893 0.31685 0.14901 0.38916 -0.23753 -0.27699 -0.34621 -0.11163 0.10927 -0.20467 0.26582 0.22859 0.4994 -0.10075 0.37045 -0.34028 -0.39414 -0.56702 -0.17485 0.21928 -0.062247 0.037552 -0.27813 0.14868 0.22705 -0.2384 0.23283 0.14355 -0.41409 -0.18438 
How 0.0065094 0.036615 0.00042932 -0.19051 -0.25411 -0.42342 0.37879 0.35641 -0.65835 0.48495 0.31112 0.3003 -0.42278 -0.31311 -0.38761 -0.081798 -0.309 -0.60558 0.11003 -0.60985 -0.25452 -0.74868 0.1826 0.39206 -0.23834 -0.23412 -0.32061 -0.13987 -0.17051 0.13874 -0.30866 -0.29715 0.36781 0.1808 -0.13852 0.55797 -0.55104 0.39299 0.020338 -0.11318 -0.18817 -0.67029 -0.45846 -0.44762 0.13209 0.049214 0.74181 0.39155 -0.0467 0.10074 
afraid 0.11918 0.35869 -0.025413 -0.32286 0.0040836 -0.033959 0.06848 0.11877 0.39892 -0.4272 -0.41032 0.48909 -0.43375 -0.23678 -0.2181 -0.97658 0.032046 -0.15826 -0.088375 -0.52683 0.044785 0.54211 -0.48079 0.5919 -0.24997 -0.36884 -0.61531 -0.4227 -0.1429 -0.42423 -0.20318 0.13828 -0.055965 0.12175 0.25932 -0.21261 -0.12658 -0.087641 -0.0012517 0.80678 0.23514 -0.51007 0.60035 -0.041994 0.058325 0.76994 0.7961 -0.011737 -0.21838 0.046835 
before -0.47868 -0.067216 0.16104 -0.25763 -0.11167 0.24127 -0.64525 -0.069475 -0.39063 0.17758 0.67731 0.71199 0.027561 -0.017368 -0.40141 -0.74761 -0.8986 0.11154 0.37653 -0.38451 0.2631 -0.3654 -0.29899 -0.053759 -0.80177 -0.18609 -0.33702 -0.83581 -0.41204 0.30234 0.45456 0.81587 -0.1895 0.36659 -0.20804 0.11614 0.21217 -0.11088 -0.49166 0.2803 -0.11971 0.58468 0.15444 -0.12976 -0.11742 -0.17901 -0.37584 -0.18794 -0.32912 -0.0058292 
carrying 0.17227 0.15585 0.84048 -0.43892 -0.70576 -0.14775 0.25756 0.4365 -0.41596 0.075399 0.373 0.20924 -0.49033 -0.26546 -0.8365 -0.19675 0.065076 -0.10824 0.4932 -0.18579 -0.66245 0.075282 0.27681 0.47609 -0.65984 -0.15176 0.24151 0.11751 0.16901 -0.0090267 0.43108 0.073893 -0.4804 -0.241 -0.02059 0.57469 -0.11778 0.21796 -0.15656 0.12619 -0.022662 -0.43492 -0.038136 0.28274 -0.0028196 0.51014 0.18143 0.24861 -0.34007 -0.38464 
was -0.56335 -0.11759 0.28013 -0.37089 -0.51559 0.57743 -0.57899 -0.24108 -0.31288 0.25204 0.36436 0.80051 -0.02778 -0.18981 -0.31379 -0.96084 -0.85675 -0.0095291 0.35968 -0.32873 0.099717 -0.10897 -0.0048549 -0.18193 -0.70324 -0.21318 -0.35119 -0.82911 -0.30784 0.28156 0.41771 0.76802 0.015101 0.34566 -0.20886 0.28776 0.040928 -0.01728 -0.54133 -0.077068 0.1481 0.49638 0.18827 0.032971 -0.16383 -0.38655 -0.39381 -0.2003 -0.46502 0.2613 
south -0.1652 0.09856 0.17573 -0.16699 -0.036451 -0.8395 -0.046016 0.015852 -0.050887 -0.16236 -0.26037 0.11512 -0.11655 -0.37062 -0.33307 -0.34522 -0.11268 -0.033999 0.046458 -0.025198 0.3779 -0.21211 0.071581 0.39439 0.004706 -0.23571 -0.26972 -0.17217 -0.065911 -0.083197 -0.28667 0.29242 0.4011 -0.094969 -0.30973 0.067923 -0.18469 0.24588 0.18312 -0.21831 -0.27693 -0.47457 -0.047964 0.0012229 -0.22501 0.093411 0.22458 0.41115 -0.010964 0.14777 
east -0.19459 0.11356 0.16276 -0.22279 0.014318 -0.74735 0.017288 0.18699 -0.057811 -0.12398 -0.28836 0.035366 -0.19232 -0.42264 -0.31022 -0.36764 0.0017981 0.084861 -0.0029776 0.035155 0.30176 -0.29087 0.14258 0.38303 0.0029189 -0.25233 -0.35633 -0.088582 -0.23607 -0.10136 -0.21344 0.25846 0.49198 -0.0052264 -0.19099 0.17143 -0.061332 0.27144 0.041562 -0.29631 -0.17422 -0.47942 -0.0045058 0.008925 -0.14974 0.16607 0.12812 0.36596 0.011203 0.21843 
Jeff 0.9108 -0.36145 0.93436 0.19105 0.066025 0.052454 0.12688 0.3564 -0.18383 0.40781 -0.13922 0.87096 -0.26658 -0.42279 -0.042603 -0.14319 -0.04625 -0.60589 -0.36324 -0.19812 0.37693 0.61136 -0.19471 0.28576 -0.60366 -0.78398 -0.23745 -0.3986 -0.21155 0.53559 -0.33844 -0.15675 0.2931 -0.9852 -0.19992 0.3211 0.57032 -0.28406 -0.26448 -0.2097 -0.14788 0.3482 0.20921 -0.29353 0.0061462 -0.58413 -0.018929 0.041386 -0.047535 0.2615 
go -0.27068 0.13608 0.54681 0.0026923 0.49197 -0.37965 0.27767 0.3853 0.0092736 0.43596 -0.39627 -0.51184 -0.48353 -0.54248 -0.32672 -0.30786 0.45164 -0.22621 0.48345 -0.36325 0.54278 -0.62979 -0.55427 -0.0010066 0.26068 0.151 -0.59789 -0.67262 0.060719 0.071921 -0.78439 0.37253 0.32781 0.026565 -0.10557 0.03838 -0.022348 0.46639 -0.41992 -0.34443 -0.33461 -0.68697 0.38638 -0.1003 -0.52197 -0.040759 0.1482 0.033966 -0.20339 -0.12273 
yellow 0.083543 0.53386 0.5456 -0.16716 0.19075 -0.41987 -0.23531 -0.064511 0.044026 0.048443 -0.35111 -0.59356 -0.19 0.033569 -0.20545 -0.1687 0.12766 -0.087736 0.25521 -0.31022 0.49152 0.36739 0.23021 0.56263 -0.58801 -0.24172 -0.19844 -0.41036 0.27127 -0.37104 0.35923 0.11085 0.44972 0.12257 0.39192 -0.019908 -0.59198 -0.49547 -0.13145 -0.063118 0.10072 0.34904 0.029353 0.27813 0.20454 -0.40131 0.4894 0.022213 0.08775 -0.17258 
took 0.70293 -0.29722 0.52832 -0.2882 -0.12669 0.19913 -0.33759 0.38753 -0.088358 0.17982 0.54322 0.36506 -0.15586 -0.27618 -0.38151 -0.22668 0.20371 -0.30474 0.087802 0.0008438 0.3438 -0.17974 0.022464 -0.0039002 -0.36369 0.082879 -0.27676 -0.25495 0.14927 0.14822 -0.067226 0.030876 0.16375 -0.28248 0.19822 0.080624 0.17066 0.060512 -0.30077 0.27573 -0.045802 -0.19286 -0.15053 0.31506 -0.099993 -0.086068 -0.26628 0.030502 -0.60321 0.035794 
Julie -0.41962 -0.38514 0.37869 0.095782 -0.32097 -0.231 0.025068 0.18293 -0.59841 -0.51694 0.0501 0.099574 -0.24034 -0.013407 0.48696 -0.29108 -0.025827 0.0056489 0.186 -0.60164 0.89515 0.70863 0.23926 -0.033599 -0.26352 0.032743 -0.11504 0.12331 -0.48445 0.26869 -0.049692 0.73718 0.018239 0.75431 -0.2783 -0.072175 -0.38019 -0.40998 -0.05197 0.021683 -0.083703 -0.093677 0.47104 -0.061974 0.34094 0.31752 -0.30379 0.15572 -0.93333 0.089559 
got 0.71595 -0.26399 0.53456 -0.33902 -0.16516 0.12729 -0.27622 0.51685 -0.13039 0.12389 0.60715 0.33437 -0.16917 -0.44293 -0.35631 -0.15404 0.1702 -0.33758 0.045851 0.11365 0.30656 -0.21787 -0.0022106 -0.033031 -0.23346 0.23328 -0.21251 -0.22607 0.078247 0.13306 0.054101 0.053051 0.10194 -0.20287 0.21824 -0.041468 0.23807 0.017245 -0.36799 0.24287 -0.061344 -0.21056 0.0046123 0.21555 -0.12266 -0.076206 -0.15722 -4.266e-06 -0.61509 0.11163 
grabbed 0.69322 -0.35546 0.53099 -0.20513 -0.18136 0.14376 -0.30276 0.48261 -0.062433 0.11447 0.54721 0.35038 -0.23084 -0.40243 -0.38584 -0.19441 0.16886 -0.3214 0.1289 0.016494 0.35452 -0.2413 0.13699 -0.029037 -0.25916 0.20466 -0.32914 -0.11841 0.08458 0.10098 0.11117 -0.095841 0.22446 -0.24758 0.25635 0.099534 0.22935 0.083864 -0.40832 0.17608 -0.0010028 -0.20565 -0.049177 0.27187 -0.027952 -0.093166 -0.10095 0.028264 -0.5446 0.087881 
picked 0.59578 -0.31684 0.47344 -0.38755 -0.11571 0.30294 -0.35682 0.47499 -0.048731 0.011172 0.74353 0.23969 -0.25099 -0.5 -0.39479 -0.34336 0.35947 -0.36879 -0.13431 -0.069342 0.099776 -0.20025 -0.31978 -0.055081 -0.34137 -0.20507 -0.23135 -0.32958 0.28929 0.099728 -0.14136 -0.23001 0.16465 -0.092994 0.12526 0.12714 0.12828 -0.15658 -0.23181 0.12849 0.006117 -0.07779 -0.14701 0.20061 -0.11263 -0.17651 -0.16848 0.43618 -0.62088 0.22482 
up 0.90099 -0.35553 0.49063 -0.2449 -0.25539 0.28887 -0.16999 0.45419 -0.12222 0.27431 0.38459 0.13099 -0.2707 -0.40093 -0.4652 0.042884 0.019923 -0.24637 0.15481 -0.077146 0.39584 -0.44116 0.31728 -0.16298 -0.53209 0.070785 -0.56351 -0.097031 0.24004 0.52222 0.11711 0.087234 0.05849 -0.28217 0.25806 -0.058473 0.26241 0.027214 -0.019863 0.074226 -0.10371 -0.077688 0.031051 0.22095 -0.17043 -0.038102 0.1296 -0.032998 -0.54726 -0.00023521 
left 0.93168 0.50583 0.42453 -0.72527 0.087667 0.49443 -0.68381 0.64032 -0.75035 0.22355 0.3614 0.2153 -0.06509 -0.018876 -0.21025 -0.30059 0.18852 -0.034281 -0.19495 -0.47761 0.14928 0.12178 0.72287 0.11153 -0.27919 -0.39255 -0.15027 -0.049818 -0.075882 0.15117 0.12387 0.10559 0.26701 0.31369 0.3437 0.24144 0.38246 -0.073876 -0.3116 0.082085 -0.48853 0.28336 -0.16248 0.17572 -0.08233 -0.33887 0.031018 0.37988 0.015805 0.040101 
box -0.049797 0.20789 0.52577 -0.90373 0.166 -0.72088 0.90568 0.06651 -0.059352 -0.78667 -0.45941 0.18978 0.50878 -0.24395 -0.30946 -0.21403 0.12145 -0.12507 -0.31152 -0.67827 0.49335 -0.009588 -0.15925 0.013685 0.038832 0.035179 0.46988 -0.68454 -0.56132 0.24024 -0.021532 0.45459 0.015319 0.53855 0.066984 0.33851 0.3649 -0.47813 0.13796 0.53586 0.078613 -0.40847 -0.11971 0.47491 -0.15987 -0.62941 0.62783 -0.038678 -0.44936 0.37638 
cinema -0.48799 -0.34529 0.21832 0.13529 -0.21765 -0.12315 -0.013308 0.20154 -0.57179 -0.37265 -0.005635 0.30688 -0.093611 0.036404 0.46013 -0.14353 0.064045 -0.21363 0.29001 -0.77012 1.1009 0.53788 0.01117 0.019521 -0.42769 -0.046832 0.0036926 0.17618 -0.34773 0.38002 0.18145 0.66238 -0.0090182 0.87433 -0.20622 -0.13658 -0.36949 -0.43856 -0.0060812 -0.032762 -0.069282 -0.080116 0.47247 -0.17432 0.36883 0.19054 -0.21306 0.15747 -0.95463 0.3183 
school -0.49713 -0.26488 0.25759 0.08108 -0.23917 -0.21405 -0.095586 0.15533 -0.62196 -0.28255 0.0041703 0.23328 -0.19171 0.10111 0.47247 -0.16958 0.086876 -0.065556 0.25912 -0.74597 1.0239 0.49162 0.1764 0.043725 -0.2851 -0.050107 -0.088723 0.21026 -0.34081 0.34727 0.1561 0.74952 0.020244 0.80796 -0.2125 -0.15993 -0.29437 -0.41226 -0.00076437 0.023682 -0.020145 -0.017127 0.47138 -0.20344 0.31229 0.18327 -0.25964 0.17704 -0.91908 0.20203 
park -0.5317 -0.32818 0.33359 0.10828 -0.2175 -0.16142 0.041953 0.13792 -0.60153 -0.43123 -0.011707 0.20319 -0.11866 0.099147 0.52927 -0.098315 0.094223 -0.10237 0.1301 -0.61876 0.89949 0.58443 0.05317 -0.0058819 -0.45028 -0.1102 -0.15645 0.20103 -0.37764 0.31689 0.0546 0.70592 0.093421 0.85161 -0.21009 -0.12123 -0.35319 -0.36166 -0.014757 0.0010324 -0.014563 -0.13219 0.55474 -0.10247 0.33321 0.16722 -0.30995 0.24818 -1.0888 0.19675 
green -0.41755 0.21231 0.49162 -0.28333 -0.021624 -0.54803 0.13482 -0.11486 0.26045 0.24316 -0.58375 -0.21385 -0.20949 0.061258 -0.61731 -0.24473 -0.09888 -0.27857 0.056017 -0.05459 0.29698 0.31468 -0.0081884 0.49725 -0.57568 -0.2174 -0.35032 0.020554 0.063319 -0.22807 0.2016 0.1496 0.33936 0.098765 0.39452 -0.24099 -0.49834 -0.58929 -0.2994 0.053899 0.11902 0.092801 -0.034077 0.18962 0.1956 -0.24019 0.21092 -0.034966 -0.20803 -0.25266 
lion -0.27723 -0.068205 0.44057 -0.1975 0.12735 -0.78994 0.29268 -0.066702 0.15584 0.36943 -0.44675 -0.21863 -0.22644 -0.17018 -0.45548 -0.17748 -0.051203 -0.35994 0.016726 -0.083223 0.28189 0.23955 0.29584 0.62726 -0.082513 -0.12331 -0.28657 -0.26004 0.17165 -0.2439 0.14156 0.2716 0.41416 0.037886 0.37551 -0.40721 -0.28406 -0.4762 -0.15311 0.26438 0.037987 0.11685 -0.089647 0.056617 0.36085 -0.3883 0.1236 0.057739 -0.19801 -0.060092 
swan -0.30084 -0.17704 0.35941 -0.16191 0.22314 -0.65347 -0.032329 -0.093062 0.074888 0.19865 -0.32955 -0.23034 -0.31045 -0.1738 -0.57598 -0.19567 -0.069887 -0.42118 -0.011693 -0.099515 0.17563 0.25308 0.34256 0.60761 -0.11302 -0.19342 -0.21026 -0.21719 0.043391 -0.3177 0.27326 0.25773 0.4126 0.061393 0.45374 -0.30517 -0.3474 -0.59525 -0.07745 0.33887 0.082869 0.042582 -0.18014 0.14553 0.29835 -0.36086 0.15516 0.17388 -0.18669 -0.13195 
gray -0.34933 0.042679 0.33802 -0.32066 0.15676 -0.52267 0.0027853 -0.10219 0.17016 0.23304 -0.44999 -0.22435 -0.24294 -0.081996 -0.59001 -0.27687 0.018298 -0.4199 0.19569 -0.10687 0.24103 0.30621 -0.061194 0.64257 -0.39723 -0.22421 -0.35166 -0.054678 0.10842 -0.19518 0.1809 0.12933 0.42888 0.033704 0.30394 -0.16035 -0.39054 -0.57983 -0.25378 -0.0065079 0.13249 0.17338 -0.14639 0.090567 0.18559 -0.26059 0.23604 0.097098 -0.13306 -0.17491 
rhino -0.29943 -0.063661 0.31523 -0.1507 0.13389 -0.72747 -0.0084973 0.023264 0.0917 0.27877 -0.31985 -0.25518 -0.2505 -0.26338 -0.4037 -0.23034 -0.049691 -0.4708 0.13951 -0.099515 0.2067 0.29944 0.32688 0.66886 -0.12149 -0.11515 -0.21995 -0.20874 0.09959 -0.43349 0.29352 0.28223 0.47776 0.039367 0.3327 -0.2894 -0.35413 -0.49855 -0.091678 0.31602 0.030758 0.089142 -0.12157 0.096508 0.3372 -0.34443 0.21458 0.1235 -0.22014 -0.18464 
frog -0.22605 -0.017417 0.31889 -0.16413 -0.0074901 -0.71736 0.082556 -0.11325 0.14544 0.19044 -0.41753 -0.29023 -0.32392 -0.20855 -0.4814 -0.20788 -0.086542 -0.43193 -0.012425 -0.050328 0.3012 0.23784 0.31411 0.70685 -0.1801 -0.2033 -0.20593 -0.23076 0.13758 -0.34157 0.18897 0.24214 0.39274 0.047839 0.41576 -0.36628 -0.25403 -0.64303 -0.22193 0.29658 0.045221 0.10095 -0.1268 0.0366 0.27985 -0.44735 0.079927 0.15216 -0.20358 -0.10805 
white -0.30996 0.20156 0.23898 -0.2789 0.021694 -0.6185 -0.0035171 -0.044711 0.14607 0.24998 -0.60355 -0.074858 -0.082046 -0.20955 -0.61314 -0.26882 0.018846 -0.46501 0.14711 0.0016856 0.22329 0.40352 -0.024588 0.61802 -0.33453 -0.1586 -0.055511 0.0045555 0.10404 -0.16157 0.18328 0.33598 0.4585 0.03446 0.38081 -0.19192 -0.45069 -0.49572 -0.23259 0.18344 0.24319 0.19858 -0.092123 0.0046774 0.098071 -0.26404 0.18855 0.16179 -0.15926 -0.22971 
dropped 0.55193 -0.11181 0.36227 -0.74459 -0.25492 0.15267 -0.27097 0.37228 -0.30627 0.22963 0.64393 0.47374 -0.013952 -0.24028 -0.36445 -0.24249 -0.19255 -0.20105 -0.04385 -0.064624 0.017027 0.08336 0.21843 0.20811 -0.52361 -0.1618 -0.3506 -0.092737 -0.092615 0.35359 -0.012525 -0.085736 -0.030427 0.01388 0.44485 0.14248 0.5057 -0.028159 -0.44786 0.11046 -0.31103 -0.035866 0.16013 0.25045 -0.059886 -0.28383 -0.14322 0.2615 -0.49161 0.057946 
discarded 0.62135 -0.045345 0.30968 -0.80343 -0.28909 0.27361 -0.28055 0.43296 -0.27431 0.23841 0.6813 0.5339 0.12325 -0.11921 -0.35284 -0.29261 -0.090069 -0.14625 -0.016548 -0.082295 0.039195 0.15126 0.23926 0.12975 -0.59673 -0.17184 -0.20659 -0.071581 -0.023562 0.32884 -0.041882 0.05988 0.025169 -0.037603 0.33486 0.21321 0.48329 -0.093689 -0.49942 0.29184 -0.1895 -0.07567 0.30687 0.1449 -0.045183 -0.10534 -0.21783 0.43993 -0.44041 0.055758 
square 0.77179 0.56608 0.52045 -0.28097 0.14653 -0.35441 -0.62839 0.45288 -0.13656 -0.35261 -0.13232 -0.61538 -0.17519 0.08085 0.10805 -0.17686 -0.085165 0.21066 -0.14413 -1.0099 1.0019 0.080974 0.56776 0.21943 0.029577 -0.66564 0.2118 -0.58718 -0.27534 -0.75662 0.10536 -0.032327 0.26135 0.38559 0.06388 0.23578 -0.19437 -0.053677 -0.63538 -0.3558 -0.069419 0.24556 0.35494 0.54744 0.21301 -0.46378 1.4193 0.046444 -0.55946 -0.079538 
down 0.71551 0.069745 0.27719 -0.69442 -0.14056 0.0078948 -0.16235 0.33401 -0.2572 0.45483 0.98732 0.61963 -0.13398 -0.60483 -0.27166 -0.25507 -0.10747 -0.017363 -0.15701 -0.10901 -0.0367 -0.023843 0.34639 0.20396 -0.46786 -0.14756 -0.061645 -0.026607 -0.015328 0.29486 0.019699 0.035545 0.033693 0.053833 0.53235 0.14062 0.39787 -0.18251 -0.30241 0.39508 -0.19655 0.066122 0.4383 -0.11358 -0.05221 -0.3793 -0.20976 0.28323 -0.43058 0.18459 
put 0.46679 -0.16021 0.11762 -0.71104 0.073247 0.23296 -0.37843 0.62351 -0.34233 0.43259 0.64133 0.36847 0.24776 -0.32803 -0.56865 -0.50502 -0.037203 -0.61733 -0.099668 -0.23229 0.16981 0.1907 0.19223 0.19457 -0.28914 -0.30111 -0.2797 -0.21694 0.22961 0.30912 0.38269 0.092654 -0.12338 -0.13426 0.32827 0.31619 0.68114 -0.080194 -0.30468 -0.067557 0.089495 -0.11262 0.15194 0.28044 -0.073226 -0.080953 -0.13227 0.33781 -0.39548 0.1421 
did 1.1964 -0.72676 1.1917 0.77113 -0.34084 -0.13617 -0.2783 0.18638 0.17336 0.025605 -0.29276 0.38954 -0.02963 -0.67832 -0.093934 -0.60025 0.80492 -0.60183 -0.20008 -0.33665 0.25854 -0.58722 -0.67673 -0.36929 -0.34905 -1.0556 -0.15682 -0.025289 -0.52198 0.58029 0.51396 -0.074306 0.53397 -0.59383 0.01622 -0.4782 -0.23921 -0.21363 -0.9144 0.081481 -0.53448 -0.097087 -0.10219 -0.071278 -0.13307 0.0090238 0.10687 -0.44464 -0.15222 -0.07103 
than 0.21752 0.18518 0.59149 -0.75509 0.015252 -0.93079 0.67709 0.023222 0.010066 -0.91875 -0.54854 0.39854 0.44727 -0.31839 -0.089862 -0.14467 -0.0031959 -0.19489 0.011929 -0.59122 0.54891 -0.09069 -0.11618 -0.065629 -0.07778 0.36922 0.54161 -0.39161 -0.6082 0.3054 -0.11663 0.49362 0.21251 0.24891 0.35765 0.20112 0.22447 -0.29673 0.18204 0.35756 -0.031566 -0.43105 -0.27161 0.40731 -0.15144 -0.63377 0.70636 -0.54511 -0.5567 0.32173 
bigger -0.005453 0.38437 0.62027 -0.997 0.010037 -0.62964 0.71504 0.10448 0.038188 -0.71659 -0.45135 0.074027 0.2478 -0.66023 -0.21924 -0.10703 0.11193 -0.18863 -0.042755 -0.80216 0.36866 -0.0036959 -0.13497 0.031682 -0.068863 0.25706 0.56308 -0.68302 -0.45128 0.38036 0.027658 0.4175 0.16189 0.35974 0.09466 0.0084162 0.47091 -0.43075 0.37518 0.27042 0.14957 -0.3519 -0.27639 0.45553 -0.092325 -0.62962 0.7399 -0.3404 -0.47677 0.33664 
color -0.57556 0.3551 0.44793 -0.40841 0.18187 -0.66792 0.061926 0.088059 0.40728 0.46688 -0.33908 0.1514 -0.17525 -0.064435 -0.47383 -0.17267 0.053594 -0.17316 0.36533 -0.66704 0.0048676 0.18207 0.097882 0.48659 0.0028948 -0.53929 -0.084191 0.13234 -0.16035 -0.41811 0.36836 0.23847 0.042603 -0.16749 0.30042 -0.43521 -0.31234 -0.48757 -0.67413 0.28208 -0.23738 0.19737 -0.096594 0.14818 0.045693 -0.087096 0.017272 -0.20365 -0.2584 -0.21799 
do -0.35892 0.31627 0.014489 -0.61912 -0.39487 -1.0336 -0.016834 0.23362 0.059023 0.013024 -0.040953 -0.22714 -0.24206 -0.17919 -0.22598 -0.47357 0.19994 -0.05478 0.11079 -0.47342 0.31734 -0.12257 0.092023 -0.10514 0.1272 -0.54551 -0.55987 -0.54581 -0.34444 0.20955 -0.53605 0.1744 0.27959 -0.47272 -0.093644 0.18441 -0.24802 0.018442 0.28281 -0.52864 -0.10364 -0.37139 0.015209 -0.61482 -0.3148 0.079442 0.20096 0.51761 0.067368 0.33076 
you -0.051627 0.31957 0.34887 -0.044209 -0.17039 -0.77365 0.33559 0.095808 -0.18741 0.23043 -0.21591 0.03111 -0.02396 -0.0041573 -0.45689 -0.74887 -0.50757 0.03387 0.40747 -0.4786 0.82721 -0.35749 0.14852 0.19511 0.45315 -0.33126 -0.21108 -0.51159 -0.1118 -0.094647 -0.12986 -0.33719 0.65996 -0.17967 -0.14526 0.14725 -0.17252 0.28604 0.13368 -0.37025 -0.14688 -0.62183 0.34491 -0.25562 -0.57995 0.25938 -0.05614 0.3825 0.061601 0.28746 
from -0.1892 0.61087 0.42255 0.18145 -0.10603 -1.2209 -0.064543 -0.00057432 0.13535 0.27882 -0.035013 0.063819 -0.30222 -0.20796 -0.24674 -0.66802 -0.34912 0.22149 0.26852 -0.25362 0.34318 -0.059986 -0.0073035 -0.098657 -0.061472 -0.3025 -0.43159 0.26286 -0.25171 0.49932 -0.72383 0.04525 0.56046 0.15211 0.14563 0.6258 -0.12569 0.29336 -0.10692 -0.06672 -0.076878 -0.40694 0.13936 -0.32775 -0.51108 -0.21995 0.30786 0.17963 0.019413 0.11286 
are 0.25918 0.21909 -0.14968 -0.21603 -0.21042 -0.35665 -0.050146 0.18085 0.48292 -0.20252 -0.43371 0.48512 -0.25238 0.60531 -0.46567 -1.1477 0.52759 0.001714 -0.48974 -0.54577 0.069284 0.31315 0.034205 0.47144 0.06921 -0.13128 -0.66522 -0.66197 -0.16013 -0.094304 -0.44233 -0.16499 0.39878 0.15599 -0.14127 -0.037947 -0.16944 -0.27658 0.073402 0.63257 0.35818 -0.33445 0.81228 0.1449 0.49039 0.46569 0.59222 -0.20346 -0.59243 -0.55215 
objects 0.27434 0.070822 0.46003 -0.16856 -0.55311 -0.11027 0.34454 -0.084978 -0.96545 0.14093 0.62221 0.36021 -0.4 -0.041559 -0.7683 -0.10495 0.14637 -0.58738 0.28343 -0.60656 -0.29873 -0.33278 0.13235 0.55682 -0.21388 -0.040059 -0.13027 -0.0075579 -0.11486 0.18475 0.23619 -0.18473 0.077577 -0.17764 0.62973 0.96313 -0.58879 0.35891 -0.28318 -0.073978 0.64689 -0.058684 -0.15172 -0.22831 0.033767 0.15023 0.22453 0.20781 -0.64306 -0.20588 
many 0.38792 0.2245 0.33107 -0.26941 -0.58443 -0.12435 0.51112 0.020297 -0.8473 0.30357 0.81142 0.18546 -0.2761 -0.051859 -0.87484 0.15052 -0.09119 -0.76155 0.43147 -0.56498 -0.39334 -0.078721 0.018238 0.44502 -0.14807 -0.26436 -0.036003 -0.085687 -0.2232 0.17906 0.067127 0.10377 -0.04556 -0.22958 0.65677 0.66711 -0.39411 0.48768 -0.18036 0.22199 0.39757 -0.12373 -0.074134 -0.2183 0.08086 0.22214 0.31758 0.29719 -0.67046 -0.31981 
they -0.1446 -0.075221 0.37422 -0.54376 -0.66012 -0.80945 -0.047381 0.33501 -0.12604 0.22575 -0.17034 0.51815 0.33236 -0.47879 0.093676 -0.13635 -0.085004 -0.026963 -0.39061 -0.96964 0.24829 0.061947 -0.57289 -0.036511 0.1546 0.12637 -0.21095 0.15061 0.76626 -0.30427 -0.019298 0.37869 0.58772 0.25377 0.5723 0.030698 0.16989 0.14586 -0.026715 -0.33894 -0.25864 0.7601 0.35217 0.33635 -0.10333 0.80909 0.24555 0.12057 0.15062 -0.40639 
that 0.37096 0.026297 0.38077 -0.61863 -0.078617 -0.78754 -0.30412 -0.12955 -0.38064 -0.0047578 -0.22126 0.59668 -0.10084 -0.21453 -0.13041 -0.077428 -0.15518 0.22107 -0.010061 -0.67397 0.062535 0.089067 -0.44076 -0.091821 -0.040497 -0.094009 0.080333 0.068667 0.59043 -0.33015 -0.34609 0.4471 0.55548 0.15341 0.39823 -0.11237 0.15912 -0.2171 0.17322 -0.72544 0.088212 0.26205 0.10996 0.16142 0.044088 0.85632 0.037512 -0.15826 -0.27381 -0.59904 
chocolate -0.032981 0.33609 0.82295 -1.0699 -0.032765 -0.73164 0.56596 0.063788 -0.041435 -0.78939 -0.3864 0.078909 0.69536 -0.37211 -0.19103 -0.032353 -0.012329 -0.28305 -0.081252 -0.67538 0.30141 0.040368 -0.33239 -0.097792 -0.11644 -0.021403 0.48525 -0.4033 -0.51271 0.33862 -0.014801 0.30717 0.26857 0.26755 0.19975 0.23057 -0.00076629 -0.48913 0.28098 0.48373 0.075255 -0.3481 -0.31604 0.61588 -0.20181 -0.46039 0.55568 -0.16568 -0.48406 0.32868 
red 0.67459 0.71854 0.69948 -0.42388 -0.063577 -0.018848 -0.5581 0.61521 -0.27789 -0.58532 0.12719 -0.87224 -0.46005 -0.1585 0.27278 -0.36357 -0.025148 0.37914 0.18405 -0.95346 0.66887 -0.088976 0.42465 0.32739 -0.19798 -0.54533 0.14763 -0.88744 -0.35843 -0.5833 0.010262 0.11845 0.35042 0.27394 0.086057 0.19361 -0.14782 -0.11705 -0.13534 -0.37244 -0.076111 0.18935 0.39471 0.56875 0.69784 -0.28776 1.0237 0.16934 -0.25785 0.16023 
This -0.46295 -0.89621 0.58373 -0.027244 -0.3211 -0.18108 -0.28319 -0.3642 -0.61641 0.14801 0.070009 0.56193 -0.45935 0.0054028 0.14118 -0.82733 -0.42105 0.097535 -0.22404 -0.50666 0.76292 0.68739 -0.10823 0.040037 -0.23015 -0.18581 -0.38177 -0.65193 -0.2042 0.45842 0.45435 0.87053 -0.13321 0.89091 -0.31128 0.1948 -0.31157 -0.042731 0.1087 -0.19628 -0.50122 0.13177 -0.036799 -0.28098 0.6293 0.18339 -0.091992 0.14465 -0.66512 -0.2816 
this -0.52158 -0.70219 0.81626 -0.027102 -0.41418 -0.13119 -0.31065 -0.4196 -0.45367 -0.0048412 0.31658 0.4106 -0.53076 0.072888 0.16339 -0.68713 -0.40228 -0.015666 -0.10887 -0.54002 0.80067 0.74968 -0.16557 -0.044595 -0.25647 -0.14127 -0.43584 -0.71974 -0.2787 0.46321 0.37084 0.88808 -0.05729 0.89426 -0.26051 0.268 -0.19408 0.05522 0.16555 -0.15968 -0.56693 0.077749 0.04738 -0.21109 0.68178 0.15376 -0.13769 0.06758 -0.60038 -0.24156 
sheep 0.28567 0.45465 0.0046792 -0.066149 -0.093559 -0.090244 0.048636 0.24961 0.32465 -0.42027 -0.42488 0.62297 -0.35458 -0.053115 -0.3593 -0.86605 0.031428 -0.10712 -0.11365 -0.61676 0.086998 0.42292 -0.27567 0.83913 -0.32313 -0.42888 -0.78222 -0.39762 -0.12827 -0.40413 -0.088195 0.0663 -0.06026 0.31451 0.35166 -0.09273 -0.16236 -0.22944 0.17799 0.67853 0.37296 -0.4875 0.48014 -0.30725 0.19933 0.76699 0.64102 -0.23681 -0.22824 -0.10048 
gave 0.73648 0.19272 0.84658 -0.20824 -0.014407 0.13482 0.47716 -0.171 -0.33915 0.37937 0.47493 0.46876 -0.10768 -0.16605 -0.2552 -0.090679 0.15051 -0.74028 -0.62937 -0.34093 0.44561 -0.014954 -0.2403 0.86231 -0.3394 -0.52563 -0.018276 0.16857 -0.0047796 0.78824 0.16043 -0.085205 0.1515 -0.76549 -0.25467 0.20668 0.26846 0.090068 -0.87882 0.09784 -0.21869 -0.092217 0.18915 -0.48819 0.28695 0.085115 0.25785 0.17123 -0.32668 0.031429 
container 0.011077 0.10765 0.71135 -0.95815 0.061886 -0.81724 0.77512 -0.020182 0.10016 -0.93261 -0.34067 0.15599 0.38752 -0.23177 -0.26966 -0.047944 0.076347 -0.11966 -0.17373 -0.68964 0.39708 -0.065843 -0.4923 -0.05327 -0.10657 0.0047302 0.45204 -0.46527 -0.52462 0.30857 -0.070199 0.48406 0.23833 0.40574 0.14149 0.15346 0.20642 -0.41728 0.37132 0.44138 0.081703 -0.44306 -0.2448 0.59669 -0.22517 -0.4403 0.69457 -0.21324 -0.38037 0.45521 
chocolates 0.17609 0.37997 0.43847 -0.96408 0.062633 -0.56796 0.73211 -0.13402 -0.056469 -0.80882 -0.49906 0.31805 0.58754 -0.36208 -0.28229 -0.3383 0.076889 -0.12341 -0.19846 -0.74226 0.3029 0.12532 -0.2083 -0.14239 0.097227 -0.091829 0.44523 -0.53722 -0.34488 0.14879 -0.18404 0.48256 0.21414 0.52615 0.021724 0.48175 0.1096 -0.34928 0.1612 0.5736 0.16827 -0.33385 -0.29806 0.62719 -0.40909 -0.65284 0.81743 -0.06003 -0.52379 0.314 
morning -0.44785 -0.52018 0.84236 0.0038285 -0.22961 -0.17909 -0.15737 -0.4721 -0.77354 -0.025616 0.089085 0.44549 -0.38216 -0.050123 0.16211 -0.57334 -0.4804 -0.089894 -0.21099 -0.37133 0.61767 0.90098 -0.10963 -0.39901 -0.13843 -0.016861 -0.38922 -0.83062 -0.33564 0.15587 0.29675 0.97759 -0.060249 0.72801 -0.36061 0.10729 -0.30318 -0.051716 -0.17243 -0.17661 -0.35726 -0.39251 -0.036069 -0.23525 0.5856 0.15723 -0.22971 0.25037 -0.67568 -0.31206 
chest -0.018831 0.29633 0.74723 -0.99647 -0.049908 -0.74208 0.5614 0.18505 -0.0021905 -0.8595 -0.55068 0.10321 0.45317 -0.26034 -0.15294 -0.08872 0.098682 -0.24262 -0.26796 -0.76026 0.54578 -0.066581 -0.47221 0.05243 -0.008163 0.032748 0.47668 -0.37547 -0.50017 0.22725 -0.047176 0.41197 0.16566 0.3439 0.2655 0.23946 0.25198 -0.39322 0.21739 0.58493 -0.086185 -0.43549 -0.35323 0.42114 -0.10848 -0.54844 0.68724 -0.26366 -0.36072 0.40547 
suitcase 0.023385 0.24547 0.6887 -0.81614 0.058861 -0.86234 0.71056 -0.0014464 -0.11493 -0.78531 -0.50382 0.20625 0.525 -0.28665 -0.21171 -0.03337 0.05606 -0.27491 -0.2562 -0.6162 0.52288 0.013928 -0.37533 0.063066 -0.038671 0.03009 0.59007 -0.59372 -0.53251 0.31475 0.1529 0.44118 0.19273 0.2694 0.098017 0.13522 0.17685 -0.4798 0.22534 0.62448 0.051594 -0.36633 -0.27903 0.37903 -0.15122 -0.66512 0.66319 -0.12453 -0.44692 0.35662 
Who 0.6524 0.32248 0.98666 0.13711 -0.21743 0.086329 -0.017705 0.15388 -0.20962 0.3797 -0.46674 0.95816 -0.332 -0.42559 -0.051243 -0.11928 -0.089395 -0.74997 -0.50587 -0.41028 0.25009 0.33653 -0.35396 0.24936 -0.61804 -0.86156 0.36655 -0.26185 -0.41756 0.67428 0.13276 -0.23136 0.38043 -0.89313 -0.09531 0.071811 0.62805 -0.23688 -0.72485 -0.12981 -0.12437 0.32398 0.52135 -0.47087 0.077818 -0.49799 -0.034706 0.044827 -0.1133 0.03631 
Why 0.73732 -0.83931 0.75262 0.06418 0.006886 0.11781 0.57211 1.0555 0.12353 0.12718 0.078025 0.025268 -0.21544 -0.5152 0.082634 -1.0803 0.6232 0.12904 0.91215 -0.46087 0.10854 -0.56423 -1.0548 -0.23182 -0.13886 -0.34522 -0.55501 -0.45389 -0.10545 0.73159 0.46843 0.64254 1.1083 -0.055492 0.67239 0.19388 -0.25427 -0.062338 -0.58694 -0.02129 -0.32197 -0.13883 0.1447 -0.25802 -0.31762 -0.74267 0.23008 -0.051929 -0.16031 -0.83514 
fits -0.14145 -0.20743 0.4716 -0.9352 -0.13012 -0.95329 0.77585 0.012691 -0.27611 -1.1965 -0.76923 0.33259 -0.22968 -0.54189 -0.56251 -0.015561 0.23341 -0.093224 -0.38677 -0.56317 0.5598 0.0039015 -0.035826 0.069644 0.096493 -0.060275 0.50198 -0.77864 -0.13864 0.31559 -0.00097758 0.26049 0.11003 0.46248 0.21926 0.36395 0.41233 -0.058875 0.027517 0.34754 0.11168 -0.46104 -0.32573 0.24074 -0.07558 -0.90866 0.62363 -0.32285 -0.25916 0.33962 
inside -0.0062494 0.030518 0.25836 -0.79941 0.092644 -0.92647 0.92707 -0.059591 -0.3169 -0.96217 -0.57834 0.36613 -0.081659 -0.55028 -0.68068 -0.13244 0.24108 -0.061717 -0.40686 -0.53108 0.75329 -0.076886 0.015856 -0.28462 0.098391 -0.32383 0.52776 -0.75072 -0.27536 0.4025 0.17131 0.53034 0.025911 0.22819 0.29331 0.2742 0.51106 -0.036881 0.18807 0.43042 0.071792 -0.4029 -0.63275 0.23427 0.0098398 -0.79547 0.95277 -0.28809 -0.42237 0.30209 
afternoon -0.41028 -0.44778 0.43292 -0.083657 -0.1748 0.1092 -0.073447 -0.5622 -0.4658 0.28421 -0.0013549 0.61535 -0.33312 0.064218 -0.04494 -0.5064 -0.48946 0.12473 -0.089599 -0.9416 0.76253 0.69677 -0.18904 -0.22482 -0.40339 -0.07107 -0.45834 -0.7619 -0.51624 0.45856 0.67275 1.0918 -0.079455 0.82513 -0.29008 0.062606 -0.17277 0.0035496 -0.1042 -0.05999 -0.42009 0.10437 0.34799 -0.28329 0.5134 -0.0049443 -0.3757 0.29548 -0.60109 -0.15358 
cat 0.10081 0.37527 0.21924 0.079472 0.062298 -0.027529 0.2091 0.11702 0.39104 -0.65231 -0.40988 0.66456 -0.36809 -0.36315 -0.24262 -0.81936 0.0030113 -0.030066 -0.083283 -0.76768 0.060411 0.3038 -0.43352 0.8383 -0.25748 -0.50892 -0.88494 -0.31942 0.019298 -0.54064 0.027932 0.1365 -0.12542 0.1478 0.68136 0.14728 -0.15115 -0.23305 0.28179 0.76676 0.2793 -0.19152 0.71593 -0.01205 -0.089508 0.60796 0.55688 -0.28328 -0.12014 0.016204 
Afterwards 0.45698 -0.046815 0.43987 -0.69299 -0.13631 -0.76831 0.00011841 -0.062742 -0.34105 -0.019363 -0.13008 0.50184 -0.12761 -0.19137 -0.079335 0.051118 -0.40758 0.19042 -0.1171 -0.59879 0.07765 0.12953 -0.54212 -0.084927 -0.10394 0.059408 0.024703 -0.14611 0.72616 -0.26356 -0.51662 0.58735 0.45047 0.16876 0.3996 -0.27402 0.080716 -0.27627 -0.097253 -0.6763 0.049229 0.13115 0.081425 -0.0035982 0.025996 0.61334 -0.1497 -0.028299 -0.11183 -0.44496 
Then 0.45803 -0.021815 0.30559 -0.63676 -0.25667 -0.69884 -0.22352 -0.14039 -0.33776 -0.061409 -0.25873 0.7027 -0.19868 -0.28653 0.050914 -0.055998 -0.4635 0.32338 -0.096706 -0.62914 0.026726 0.11702 -0.4568 -0.024026 -0.12275 -0.04848 0.1669 -0.049386 0.74079 -0.27317 -0.46885 0.61484 0.52177 0.09217 0.41141 -0.099572 -0.051577 -0.19812 0.062917 -0.49076 0.065435 0.17666 0.19538 -0.056731 0.1184 0.64688 -0.12346 -0.079586 -0.1057 -0.39722 
mouse 0.14464 0.35191 0.12949 0.15063 0.067611 -0.11761 0.30831 0.12895 0.30799 -0.63353 -0.51615 0.77579 -0.39867 -0.26731 -0.26363 -0.72335 -0.1878 0.051076 -0.030718 -0.74594 -0.11078 0.26836 -0.40691 0.81468 -0.34436 -0.71182 -0.94791 -0.42203 -0.20755 -0.42721 0.028161 0.23497 -0.26275 0.20859 0.4242 -0.31145 -0.060783 -0.1548 0.14409 0.77204 0.38607 -0.38516 0.58098 0.050995 -0.030937 0.56322 0.47969 -0.28045 -0.17628 0.0095464 
he 0.48027 -0.064246 0.13896 -0.76026 0.26014 -0.98908 0.30793 0.42824 -0.48312 0.56705 0.043707 0.6315 0.22644 -0.65299 -0.19959 -0.14604 -0.16791 0.2968 0.11993 0.084859 0.11712 0.27918 -0.51889 0.0064255 0.16638 -0.45039 0.047173 -0.27243 0.52001 0.043261 -0.31055 0.46068 0.3329 0.66893 0.39715 -0.22815 -0.31256 -0.10316 -0.15532 -0.51925 0.30971 0.41564 0.26228 0.19832 0.047433 0.85846 -0.062475 -0.77187 -0.32764 -0.2409 
she 0.3729 -0.066255 -0.013413 -1.0271 0.099349 -0.94638 0.12753 0.19894 -0.46315 0.58632 0.090101 0.63737 0.095974 -0.52477 0.049522 -0.11774 -0.16274 0.1071 0.10663 -0.14668 0.10272 0.26014 -0.46162 0.20076 0.1563 -0.49663 0.056683 -0.2361 0.50552 0.16265 -0.29849 0.42572 0.36296 0.43225 0.26592 0.027451 -0.37635 -0.18966 -0.25559 -0.50949 0.16417 0.45331 0.21964 0.037971 0.11365 0.96507 0.0057498 -0.83569 -0.29639 -0.055948 
fit 0.24464 0.2375 0.83716 -0.82057 -0.011203 -0.65782 0.37172 0.072608 0.43638 -0.59702 -0.17459 0.057877 1.1001 -0.53114 0.33706 -0.39323 -0.094978 -0.57465 -0.0038817 -1.1061 0.27096 -0.16338 -0.25031 0.521 0.031819 0.3349 0.22325 -0.080727 -0.7477 0.29462 -0.044467 0.47457 0.13169 0.44854 -0.16763 0.14416 0.13294 -0.67581 0.36582 0.34862 0.46405 -0.061517 -0.23428 0.49968 -0.27516 -0.66914 0.5966 -0.51337 -0.43751 0.051416 
Does 0.1828 0.48808 1.0104 -1.2358 0.04255 -0.51591 0.51591 -0.055689 0.39626 -0.60445 -0.27402 0.030669 0.95111 -0.55822 0.17095 -0.18568 -0.1652 -0.33093 0.063185 -0.98281 0.40529 -0.017079 -0.54844 0.18283 0.26989 0.47623 0.18218 0.0011943 -1.0108 0.33087 0.090795 0.46002 0.12761 0.48237 0.021286 0.13319 -0.010724 -0.81074 0.090416 0.68914 0.23058 0.12743 0.13086 0.38731 -0.42504 -0.59116 0.75691 -0.2982 -0.6726 0.23535 
or 0.16648 -0.075188 0.31073 -0.10455 -0.28665 -0.38753 0.57129 0.46039 -0.58071 0.21455 -0.37029 -0.2885 -0.0037839 -0.14781 0.83613 -0.054679 0.18788 0.17167 -0.084498 -0.62048 0.89042 0.22149 -0.25613 -0.012892 -0.50239 -0.70819 -0.10905 0.65571 0.034814 -0.32027 -0.00099649 1.0744 0.24627 -0.12963 -0.44049 0.19594 -0.28926 -0.0080115 0.23097 0.65732 0.27317 -0.29709 0.44658 0.1378 0.52175 0.0015798 -0.3551 0.18669 -1.163 0.46639 
either -0.052915 -0.31873 0.32076 -0.16782 -0.32156 -0.45915 0.32174 0.1973 -0.36923 0.04893 -0.24251 -0.18131 -0.41092 -0.30556 0.84005 -0.126 0.48142 0.23799 0.04347 -0.76127 1.0165 0.2223 -0.15213 0.27774 -0.43684 -0.52262 0.0093595 0.56907 0.18822 -0.32673 0.010875 0.81836 0.34709 -0.24417 -0.65474 0.33221 -0.10016 -0.073498 0.52963 0.39532 0.52838 -0.19155 0.25046 -0.017466 0.49821 -0.07714 -0.34231 0.18046 -1.3419 0.42349 
Following 0.51118 -0.066886 0.31021 -0.59353 -0.27461 -0.81745 -0.013408 0.14622 -0.20675 0.046504 -0.14661 0.63354 -0.10349 -0.31373 -0.10794 0.035236 -0.3381 0.36227 -0.17379 -0.70107 0.11741 0.19673 -0.41549 -0.054742 -0.064111 0.088234 0.179 -0.16513 0.81594 -0.2947 -0.43878 0.76343 0.37833 0.17615 0.25457 -0.11034 -0.19105 -0.12718 -0.13849 -0.47522 0.17966 0.14413 0.013692 -0.019467 0.068439 0.66392 -0.12464 -0.032979 -0.025835 -0.37376 
wolf 0.2612 0.54893 0.012201 0.052062 -0.078917 -0.14843 0.099164 0.065237 0.42233 -0.49718 -0.48171 0.87659 -0.71566 -0.17094 -0.31318 -0.85681 0.055009 -0.0063376 -0.086671 -0.7789 -0.014887 0.35278 -0.27937 0.9312 -0.23514 -0.49038 -0.85773 -0.21795 -0.21502 -0.3668 -0.068735 0.20581 -0.15207 0.25757 0.63249 -0.153 -0.090206 -0.17726 0.16099 0.98533 0.25413 -0.33021 0.43501 -0.30789 0.051296 0.33757 0.7252 -0.29457 -0.12001 0.10201 
give 0.61922 0.48569 0.89448 0.41368 0.047405 0.26091 0.25357 0.044898 0.29227 0.46551 -0.17984 1.0006 -0.275 -0.51271 -0.013204 0.071922 0.1656 -0.65242 -0.49666 -0.61225 0.3954 0.21659 -0.42393 0.56683 -0.96515 -0.76572 0.057668 -0.2549 -0.30921 0.63219 0.11038 0.050777 0.37784 -0.83156 -0.23847 0.10116 0.68963 -0.18409 -0.78135 -0.23615 -0.13944 0.22915 0.36433 -0.32522 0.10849 -0.23361 -0.053393 -0.036659 -0.088543 -0.043409 
After 0.57655 -0.078375 0.31305 -0.66533 -0.054642 -0.94184 -0.081957 0.11993 -0.11777 0.12004 -0.06342 0.55246 -0.16485 -0.27897 -0.0571 0.040668 -0.22792 0.32174 -0.14107 -0.7317 0.22231 0.19724 -0.40607 0.13843 -0.071938 0.30505 0.075216 -0.19857 0.91675 -0.22502 -0.22003 0.70556 0.40375 0.19353 0.41114 -0.10764 -0.19023 -0.27768 -0.20218 -0.58458 0.17663 0.15998 -0.0083287 -0.0039899 -0.08853 0.60519 -0.14184 0.043643 0.14384 -0.29116 
one 0.31244 0.32228 0.29766 -0.020338 -0.53428 -0.14686 0.23849 0.41028 -1.0107 0.20649 0.64359 0.3449 -0.19416 0.032454 -0.99011 0.037242 -0.123 -0.52813 0.24852 -0.80817 -0.32925 -0.31879 -0.04796 0.5378 -0.11708 -0.080286 -0.16721 -0.014441 -0.21786 0.062087 0.13502 -0.092714 -0.34496 -0.28548 0.49679 0.71143 -0.45302 0.098919 -0.23 0.014544 0.4194 -0.29745 -0.26231 -0.3091 -0.24358 0.040511 0.20577 0.12758 -0.68694 -0.32792 
none 0.27897 0.53852 0.20416 0.1078 -0.26494 -0.34534 0.28327 0.16029 -0.73646 0.35553 0.65385 0.34442 -0.040401 0.13649 -1.0604 0.09269 0.0066969 -0.60077 0.16768 -0.89603 -0.26202 -0.53907 -0.11135 0.58094 -0.29478 0.029074 -0.032066 0.020946 -0.22649 0.11186 0.29152 0.044156 -0.19211 -0.25469 0.45244 0.64656 -0.57441 0.23147 -0.354 0.073731 0.48914 -0.11231 -0.26276 -0.34891 -0.064101 0.066173 0.22078 0.091136 -0.85383 -0.49189 
triangle 0.92452 0.76221 0.78241 -0.22329 0.090452 -0.15756 -0.6404 0.21594 -0.36435 -0.35465 -0.057693 -0.67517 0.01458 -0.011983 0.369 -0.26783 -0.083185 0.34107 0.022177 -0.59428 0.51416 0.15166 0.40829 0.025167 -0.040282 -0.53507 0.03932 -0.73046 -0.39339 -0.64724 0.21849 0.32733 0.4614 0.12301 0.29061 0.50375 -0.3154 -0.11277 -0.39089 -0.36138 -0.11501 0.039441 0.44605 0.59761 0.36713 -0.20667 1.425 0.25341 -0.53131 -0.064691 
sphere 0.7585 0.77593 0.81558 -0.42475 0.03189 -0.25695 -0.47856 0.61609 0.021249 -0.33679 0.15619 -0.79023 -0.42277 0.13761 0.23368 -0.31404 -0.089754 0.55049 0.054457 -0.98549 0.72799 -0.29148 0.52163 0.29946 -0.13227 -0.46114 0.25746 -0.6078 -0.52361 -0.54598 -0.014343 0.23249 0.28961 0.25088 0.18468 0.20771 -0.45268 0.041633 -0.28125 -0.38547 -0.1751 0.21609 0.35475 0.53069 0.66613 -0.3193 1.1214 -0.17361 -0.46158 0.060073 
rectangle 0.91439 0.74227 0.42775 -0.43502 0.34009 -0.14535 -0.59259 0.48499 -0.14159 -0.46178 0.14813 -0.23041 -0.081185 0.15373 0.19377 -0.4394 0.021042 0.25582 0.5451 -0.90678 1.0903 0.2791 0.62509 0.26889 0.20367 -0.18701 0.0041197 -0.66377 -0.24239 -0.47968 0.27851 0.43658 0.31701 -0.10457 0.16455 0.32516 -0.37035 0.020522 -0.28223 -0.50864 -0.38852 0.60193 0.16943 0.46764 0.53624 -0.25603 1.5288 0.23514 -0.37406 0.052974 
pink 0.89069 0.57519 0.56172 -0.37094 0.11874 -0.24065 -0.86654 0.28771 -0.17077 -0.52016 -0.13977 -0.26863 -0.25891 0.17822 0.25218 -0.21928 -0.069149 0.39478 0.47622 -0.90528 1.0942 0.013258 0.4116 0.23913 0.067032 -0.10387 0.05702 -0.92892 -0.31074 -0.29212 0.25324 0.20729 0.30377 -0.01526 0.12735 0.2464 -0.27567 0.18017 -0.31312 0.017139 -0.36758 0.25624 0.17903 0.30091 0.59069 -0.359 1.5865 0.14258 -0.34132 0.084866 
blue 0.85131 0.63022 0.42066 -0.20025 0.42587 -0.36013 -0.56239 0.27185 -0.21202 -0.4211 0.10964 -0.54495 -0.19268 -0.18662 0.24561 -0.086653 0.09898 0.12993 -0.058022 -1.0153 0.98509 0.039198 0.28916 0.28802 -0.082808 -0.81559 0.19643 -0.83088 0.10839 -0.56253 0.27483 -0.26745 0.5149 0.38483 0.077864 0.33947 -0.20366 -0.26082 -0.2456 -0.37467 -0.061731 0.053418 0.16667 0.69045 0.21242 -0.29082 1.4029 0.33433 -0.45884 0.028889 
passed 0.69249 0.51388 0.86017 -0.32867 -0.095657 0.1783 0.48355 -0.26789 -0.50012 0.25376 0.50547 0.41434 -0.16426 -0.067284 -0.42076 -0.091203 0.23798 -0.71216 -0.41559 -0.17649 0.41883 0.2003 -0.078732 0.84858 -0.20813 -0.41666 -0.080965 0.1463 0.17088 0.80814 0.20468 -0.013451 -0.046121 -0.71196 -0.047827 0.23368 0.3912 0.096031 -0.89803 -0.0027451 -0.12075 -0.17611 0.059722 -0.75844 0.40801 0.15122 0.3423 0.55413 -0.45455 0.03317 
Yesterday -0.28259 -0.73497 1.0313 0.16777 -0.37842 -0.20401 0.11434 -0.26936 -0.66744 0.17761 0.13755 0.35118 -0.49237 -0.1678 -0.034556 -0.5767 -0.51351 -0.048464 -0.26998 -0.17097 0.78769 0.84952 0.063931 -0.26539 0.13097 0.1242 -0.44872 -0.59366 -0.31589 0.01385 0.26259 0.81236 -0.1599 0.71956 -0.47937 0.082648 -0.00087266 -0.30006 0.10203 -0.33131 -0.42166 -0.16223 -0.30534 -0.44511 0.61859 0.063451 0.099893 0.21091 -0.5184 -0.27867 
yesterday -0.24294 -0.6369 0.94306 0.15981 -0.46847 -0.12585 -0.018769 -0.27242 -0.85831 0.051276 0.1872 0.31353 -0.56777 -0.10312 -0.055779 -0.66417 -0.49428 0.055059 -0.325 -0.26299 0.73516 0.95156 0.056178 -0.22842 0.11226 -0.10114 -0.45398 -0.7193 -0.22479 0.15795 0.24336 0.81711 -0.20337 0.69968 -0.40812 0.055129 -0.056344 -0.22131 0.15978 -0.30302 -0.48267 -0.17073 -0.17625 -0.37398 0.5922 0.24221 0.0098238 0.22322 -0.5302 -0.13899 
handed 0.80836 0.33253 0.92053 -0.28679 -0.16626 0.2709 0.57476 -0.12713 -0.3922 0.11332 0.61446 0.40491 -0.22171 -0.06098 -0.44089 -0.074673 0.12183 -0.75284 -0.55875 -0.2665 0.54887 0.080302 -0.075287 0.76171 -0.13343 -0.44858 -0.13988 0.30115 0.08536 0.8028 0.16377 -0.0697 0.022381 -0.77496 0.14859 0.1301 0.24896 0.14859 -0.95123 0.05613 -0.097068 -0.21085 0.10056 -0.70213 0.35929 0.22509 0.24721 0.27741 -0.48054 0.071923 
will 0.12535 -0.77772 0.73423 0.099935 -0.089448 0.16211 0.36703 0.45944 -0.33634 -0.015916 -0.045193 -0.37172 -0.48949 -0.77724 -0.25974 -0.95081 0.65828 0.063131 0.78277 -0.19136 0.34264 -0.53903 -0.5402 -0.32774 0.33039 -0.35976 -0.21547 0.098749 0.092079 0.27383 -0.21759 0.73512 1.247 0.43966 0.87938 -0.56641 -0.0028411 -0.41542 0.052025 0.16606 -0.65602 -0.60032 -0.045539 -0.24927 -0.27502 -0.15669 0.56758 -0.016691 -0.46668 -0.82709 
nothing 0.23851 0.52101 0.70424 -0.54562 0.21622 -0.27719 0.58767 0.7893 0.19061 0.15977 0.29502 0.73146 -0.41975 -0.13672 -0.44334 -0.70189 -0.056018 0.13307 0.57507 0.0044867 -0.13298 0.18975 0.10829 -0.26019 -1.0471 -0.17169 -0.11208 0.12791 -0.2405 -0.69479 0.64531 -0.18401 -0.33692 0.0041975 0.0020852 0.63148 0.14257 -0.19832 -0.1519 0.1603 -0.046861 0.58992 -0.29866 0.18059 -0.43224 0.56822 0.0069202 0.26702 -0.19092 -0.20255 
above 0.89762 0.82494 0.60041 -0.36041 0.2555 -0.20129 -0.7681 0.84111 -0.31761 -0.53113 -0.044266 -0.53507 -0.30703 0.10255 0.18228 -0.37026 -0.13208 0.3207 0.1408 -1.0416 0.69087 0.16271 0.43925 0.18209 0.14851 -0.42764 0.13137 -0.5296 -0.22127 -0.54229 0.30257 0.14243 0.38729 0.22301 0.21476 0.060838 -0.38277 0.12679 -0.43223 -0.23254 -0.083034 0.047155 0.24129 0.5291 0.54145 -0.50183 1.2406 0.3667 -0.38065 0.079651 
evening -0.59016 -0.31837 0.22807 -0.18778 0.12983 -0.2159 -0.1904 -0.62624 -0.62443 0.17132 0.17018 0.80436 -0.27471 0.03436 0.268 -0.71578 -0.44097 0.10785 -0.081912 -1.0251 0.70439 0.47692 -0.13063 -0.12117 -0.35002 -0.0018706 -0.49741 -0.604 -0.43296 0.47056 0.91487 1.1733 -0.26484 0.81628 -0.15678 0.2587 -0.31897 -0.0094777 -0.27243 -0.29514 -0.44789 -0.18509 0.40589 -0.14365 0.62997 -0.058388 -0.51515 -0.07198 -0.54529 -0.34668 
below 0.71297 0.76613 0.76003 -0.27006 0.17501 -0.284 -0.7643 0.52322 -0.30929 -0.40183 -0.087892 -0.59956 -0.26792 0.028077 0.33388 -0.29347 -0.004833 0.23957 0.22643 -0.99628 0.62805 0.26438 0.37969 0.10109 0.036403 -0.53223 0.26291 -0.65004 -0.21484 -0.3832 0.16483 0.23595 0.16229 0.37088 0.17072 -0.011135 -0.43341 -0.095455 -0.42592 -0.14698 -0.0018724 0.044121 0.14511 0.44116 0.42647 -0.37409 1.2977 0.28464 -0.2929 0.12531 
right 0.99395 0.90288 0.67849 -0.34881 0.30421 -0.30476 -0.44978 0.6756 -0.22451 -0.35582 -0.022825 -0.53418 -0.39653 -0.15608 0.37047 -0.26098 -0.17717 0.4076 0.039231 -1.0418 0.54094 0.28448 0.27808 0.25187 0.18529 -0.50898 0.1542 -0.64384 -0.30423 -0.46656 0.2403 0.054729 0.31191 0.33205 0.15952 0.054396 -0.14438 -0.0080571 -0.38605 -0.38395 -0.25175 0.17368 0.18453 0.56673 0.43788 -0.44038 1.4192 0.46234 -0.49324 0.02987 
longer 0.17753 0.26256 0.1911 -0.23331 -0.59829 -0.28415 -0.15616 0.40933 -0.193 0.57301 -0.22221 0.58069 0.30817 -0.17749 0.47268 0.39442 0.40981 0.62993 0.44199 -0.30334 0.78303 -0.079529 -0.1832 0.61725 0.19294 0.099964 -0.64809 -0.11886 -0.32763 0.2271 -0.073491 0.11358 0.23662 0.41393 0.58384 -0.46565 0.0013606 -0.28783 0.012477 -0.0052066 0.81374 -0.2643 -0.51603 0.86588 -0.25327 0.25492 0.30756 0.75983 -0.64654 0.32433 
winona 0.17275 0.49658 0.24291 0.11243 -0.0095993 -0.045743 0.51583 -0.0024781 0.044183 -0.56785 -0.35808 0.68566 -0.62498 -0.47997 -0.46063 -0.8415 -0.048877 0.14383 -0.3049 -0.48007 -0.17019 0.33652 -0.28198 0.9355 -0.2396 -0.66736 -0.72952 -0.34227 -0.014522 -0.38183 0.03174 0.49078 -0.21126 -0.071292 0.73075 -0.18658 -0.17502 0.048498 0.49005 0.58134 0.07104 -0.0062615 0.46209 0.19103 -0.44333 0.59183 0.49333 -0.33537 -0.21005 0.10203 
get 0.48422 -0.48273 0.83487 -0.083974 0.06092 0.32179 0.29865 0.71039 0.43831 -0.25949 -0.23771 -0.019072 -0.3664 0.32452 -0.0068457 -0.91057 0.44964 -0.4123 0.82767 -0.34694 -0.0014566 -0.83824 -0.91041 0.18521 0.19339 -0.27506 -0.50705 -0.22303 -0.065821 0.56479 0.21517 0.82749 0.89869 -0.25708 0.33132 0.15367 -0.21377 0.052754 -0.61526 0.37825 -0.26094 0.020453 0.29693 0.10393 -0.41884 -0.8214 0.20037 -0.3152 -0.10105 -0.67727 
hungry 0.33928 -0.17651 0.39697 0.16673 0.084463 0.14856 0.43978 0.53429 0.091835 -0.0059044 0.12097 -0.1828 -0.19926 -0.76165 0.017206 -0.85062 0.43793 -0.13476 0.65111 -0.28466 -0.0049709 -0.4205 -0.55757 -0.36575 -0.17209 -0.22654 -0.7269 -0.34106 -0.15042 0.54215 0.33552 0.74987 1.2433 0.15452 0.59638 0.11317 -0.29637 -0.65289 -0.7789 0.0065254 -0.37342 -0.65319 -0.065479 -0.099979 -0.44267 -0.41054 -0.021992 -0.28415 -0.25233 -0.97712 
not 0.2165 0.58364 0.060631 -0.26296 -0.64298 -0.40022 -0.015414 0.30573 0.0076949 0.69994 -0.12643 0.5518 0.35816 -0.19062 0.35014 0.4488 0.31239 0.62904 0.34044 -0.36356 0.76217 0.050998 -0.10897 0.31998 -0.078296 0.0578 -0.64927 -0.17592 -0.39414 0.20266 -0.31793 0.090879 0.28176 0.28199 0.50965 -0.43935 0.060759 -0.49523 -0.10037 -0.15434 0.82769 -0.46634 -0.38605 0.77197 -0.165 0.19684 0.23678 0.50194 -0.67219 0.2264 
jason 0.91294 -0.71363 0.3757 0.085257 -0.20033 -0.09234 0.63036 0.32594 0.30168 -0.29467 0.37267 -0.41293 -0.39944 -0.36643 -0.28055 -1.2228 0.48614 0.12874 0.5973 -0.53545 0.47894 -0.60496 -1.0093 -0.016674 0.17116 -0.26383 -0.50452 -0.14912 -0.10036 0.57775 0.14479 0.65143 0.87689 0.13339 0.71055 -0.11854 0.050511 -0.50283 -0.64608 -0.07195 -0.36034 -0.34298 0.17999 0.074374 -0.52571 -0.57939 -0.071797 -0.063858 -0.14446 -0.89421 
Jason 0.70469 -0.71544 0.075114 0.10071 -0.24537 0.019426 0.46669 0.98173 -0.043238 0.030601 -0.0080897 -0.45262 -0.66244 -0.44917 -0.15388 -0.96712 0.50027 0.039373 0.48345 -0.60739 0.23058 -0.58265 -0.65742 -0.22299 0.15051 -0.40073 -0.1918 -0.54939 0.1668 0.67213 0.31358 0.94135 0.86271 0.01121 0.61407 -0.44793 0.025259 -0.21779 -0.48193 0.085659 -0.29592 -0.67639 0.028632 0.20784 -0.32254 -0.53587 0.24583 0.047495 0.013133 -0.79146 
gertrude 0.14671 0.61294 0.27908 0.18601 0.11502 0.099507 0.39455 -0.027983 0.084483 -0.79754 -0.35684 0.68854 -0.70945 -0.28802 -0.34366 -0.70428 0.10794 0.24713 -0.23386 -0.44066 0.036835 0.22803 -0.28639 0.84133 -0.24344 -0.67798 -0.69624 -0.57217 -0.032651 -0.38091 -0.075866 0.34329 -0.25734 0.033949 0.77941 -0.33736 -0.18987 -0.13478 0.446 0.53555 0.075787 0.065304 0.47812 0.28255 -0.19549 0.52653 0.40988 -0.17549 -0.23483 0.17704 
bored 0.20597 -0.39948 0.79581 0.14806 -0.048032 0.19575 0.59348 0.74038 0.26468 -0.40881 0.35845 -0.021669 -0.23662 -0.78021 -0.30183 -0.83912 0.4025 0.23716 0.85811 -0.52275 -0.01086 -0.74099 -0.41756 0.006069 0.3028 -0.42251 -0.44571 -0.38149 -0.032504 0.31796 0.047412 0.22795 1.1318 0.18513 0.54364 -0.45334 0.12347 -0.41044 -0.57748 0.0053593 0.014041 -0.54126 0.13277 -0.1336 -0.13233 -0.41962 0.082604 -0.45516 0.10454 -0.55027 
cats 0.46779 0.28503 -0.28213 -0.15917 -0.013587 -0.19933 -0.0084315 0.56431 0.33891 -0.29225 -0.5682 0.39582 -0.28458 0.27938 -0.52634 -0.93844 0.21108 0.02243 -0.27376 -0.63195 -0.065772 0.33273 -0.049596 0.4416 -0.22159 -0.016357 -0.6877 -0.69962 -0.17938 -0.035806 -0.41691 0.043284 0.35164 0.27326 -0.12918 -0.089275 -0.094359 -0.35999 0.3284 0.96436 0.11478 -0.2817 0.83929 -0.20992 0.63284 0.68209 0.65687 -0.14769 -0.69293 -0.44048 
mice 0.48003 0.25938 -0.16023 -0.32135 -0.014545 -0.25388 -0.010886 0.45624 0.25186 -0.36413 -0.49426 0.44377 -0.1989 0.37176 -0.53819 -1.058 0.16546 0.13945 -0.36672 -0.63587 -0.067738 0.3596 -0.12703 0.53991 -0.22156 0.16699 -0.8399 -0.43444 -0.092016 0.063854 -0.51098 -0.0059141 0.35374 0.04294 -0.14659 -0.11869 -0.051808 -0.28759 0.20825 0.90084 0.14363 -0.42677 0.63134 -0.21456 0.57156 0.52303 0.93828 -0.2456 -0.55719 -0.42318 
antoine 0.55534 -0.81409 0.35864 -0.1499 -0.21169 0.11496 0.66988 0.91423 0.1133 -0.27866 0.13545 -0.45026 -0.39756 -0.26576 0.034323 -0.90883 0.28072 -0.018813 0.65757 -0.49527 0.25489 -0.90209 -0.77054 0.10463 -0.018098 -0.61913 -0.50743 -0.37196 -0.26042 0.31738 0.37338 0.68739 1.2645 0.18832 0.60053 -0.32071 0.068314 -0.28317 -0.54476 0.062529 -0.71798 -0.39849 0.12394 -0.14177 -0.1159 0.022959 -0.13458 -0.21148 -0.12568 -1.0735 
Antoine 0.39692 -0.99851 0.36541 0.15279 0.20766 -0.094046 0.2227 1.107 -0.095239 -0.4036 0.10406 -0.25746 -0.57894 -0.40935 -0.15212 -1.1027 0.53126 0.019529 0.38767 -0.55859 0.016746 -0.70059 -0.42019 0.041065 0.32071 -0.52517 -0.26547 -0.11411 -0.18927 0.23149 0.2615 0.95738 1.0258 0.027954 0.59881 -0.28195 0.17166 -0.33306 -0.42256 -0.16342 -0.34008 -0.48079 -0.2381 -0.22282 0.022317 -0.39631 -0.015949 -0.15857 -0.1143 -0.79023 
thirsty 0.52193 -0.25601 0.45078 0.18831 0.20325 0.26686 0.47228 0.52546 0.33444 -0.10087 0.073129 -0.22986 -0.33711 -0.58189 0.014702 -0.93738 0.44985 -0.014037 0.70082 -0.647 -0.11892 -0.56647 -0.44879 -0.32525 0.10485 -0.10446 -0.17856 -0.23003 -0.34781 0.57263 0.31052 0.71274 1.3459 0.14569 0.26169 -0.25521 -0.32382 -0.42323 -0.49308 -0.16275 -0.19529 -0.44814 -0.028015 0.27035 -0.29693 -0.11995 0.12398 0.33754 -0.43488 -1.0358 
Sheep 0.039588 0.62572 -0.24575 -0.22861 -0.23396 0.071906 0.16655 0.067268 0.23449 -0.34443 0.048898 0.66045 -0.27677 -0.027122 -0.40851 -0.79464 0.49638 -0.13004 -0.32802 -0.52774 0.05477 0.37984 0.32695 0.27976 -0.24032 0.022516 -0.65251 -0.71895 -0.10636 -0.60886 -0.22014 -0.19508 1.2432 0.4263 -0.36922 -0.23426 -0.16225 -0.21737 0.17139 0.55875 0.29576 -0.4556 0.51448 -0.10743 0.48297 0.43638 0.54095 -0.59843 -0.49296 -0.40472 
Gertrude 0.47888 0.42736 -0.6512 0.067432 -0.052187 -0.26238 0.19183 0.34395 0.35691 -0.72549 -1.0353 0.60956 -0.77889 -0.31216 -0.58397 -1.3553 0.52406 -0.67594 0.10202 -1.3989 -0.22861 0.80972 0.094121 0.64523 -0.2273 -0.062116 -1.1383 -0.67558 -0.11478 -0.34236 -0.27076 0.27041 -0.0058558 -0.12333 0.43176 -0.31425 0.28619 -0.36026 0.34087 0.46812 0.63454 -0.13041 0.74111 0.073634 0.25465 0.75046 0.84611 -0.50278 -0.8669 -0.081455 
Emily 0.41334 0.47237 -0.39283 -0.21638 -0.32083 -0.28544 0.20188 0.32131 0.50656 -0.5837 -0.60153 0.15865 -0.5515 -0.53289 -0.51398 -1.5296 0.74932 0.11378 -0.29973 -0.63707 -0.40736 0.32684 -0.14885 1.3395 -0.2153 -0.1032 -1.1871 -0.91646 0.13939 0.083613 -0.20366 0.34327 0.44782 0.55962 0.19214 -0.18984 -0.036808 0.079206 -0.0047526 1.0872 0.68793 -0.19494 0.78257 -0.025871 0.95639 0.71597 0.66901 0.03451 -0.41616 0.0016105 
Jessica 0.5959 0.49334 0.22113 -0.32052 0.0463 -0.14142 0.18605 -0.049593 0.22297 -0.29451 -1.1111 0.77386 -0.409 0.095653 0.016853 -1.4512 0.40448 -0.015296 0.22471 -0.94028 -0.58322 0.60293 -0.15809 0.97988 0.085505 -0.39437 -0.86384 -0.94154 0.018671 -0.76378 -0.39848 0.079354 0.5947 -0.20909 0.5691 0.0072635 0.00057758 -0.33868 0.41071 1.4174 0.090121 -0.55825 0.78098 -0.20772 0.51386 0.49082 0.47191 0.02245 -0.89647 -0.10065 
Mice 0.097994 0.49333 0.013179 -0.50528 0.035242 -0.12555 0.10714 0.082402 0.19917 -0.48875 -0.4181 0.30149 -0.28054 0.54805 -0.23387 -0.52175 0.014096 -0.06056 -0.24271 -0.58914 -0.33132 0.33132 0.35396 0.12145 -0.20081 -0.21658 -1.3531 -0.23995 0.1415 0.47589 -0.24016 0.2623 0.79063 -0.11607 -0.061247 -0.20496 -0.074893 0.1293 0.092449 0.82282 0.27338 -0.53325 0.72829 0.0097699 0.47058 0.49159 0.78479 -0.4337 -0.64675 -0.22927 
Winona 0.84569 0.26541 -0.4287 -0.17384 0.091217 -0.92202 0.49176 -0.085583 0.31543 -0.31789 -0.55289 0.44473 -0.57086 0.089251 -0.26661 -1.3902 0.53495 -0.1302 -0.46379 -0.57775 0.19503 0.1518 -0.25026 0.55051 -0.35259 -0.13261 -1.3859 -0.55372 -0.12661 -0.61312 0.281 -0.067364 0.30768 0.29389 0.48578 -0.44306 -0.21995 0.038792 0.19408 1.4112 0.24136 -0.24996 1.064 -0.1757 0.21482 1.0005 0.97312 -0.38959 -1.14 0.1036 
Cats 0.22193 0.24731 0.028189 -0.52602 -0.21391 -0.0019246 0.077627 0.33705 0.51263 -0.28542 -0.57813 0.41937 -0.631 0.1436 -0.4043 -0.54659 0.075842 0.089518 -0.032898 -0.56233 0.029622 0.063946 0.22165 0.29993 -0.010376 -0.014086 -0.37413 -0.88615 -0.32113 0.39171 -0.074247 -0.2729 0.68246 0.12179 -0.22133 -0.27222 -0.49269 -0.22644 0.46381 0.92032 0.4792 -0.0086135 1.1048 -0.26325 0.3567 0.80946 0.60792 -0.17405 -0.81896 -0.2386 
Wolves 0.60575 0.10648 -0.16423 -0.56287 0.091525 0.31249 0.10528 0.1598 0.28061 -0.11166 -0.91441 0.64995 -0.27975 0.36478 -0.92197 -0.93954 0.31691 0.17707 -0.31843 -0.5961 0.26126 0.16173 0.15933 0.27745 0.07408 0.055077 -0.57826 -0.032277 -0.097999 -0.16392 -0.27455 0.18047 0.92425 0.30494 -0.25866 -0.015251 -0.30958 0.23013 0.28291 0.57468 0.61808 -0.20727 0.61365 -0.079726 0.48867 0.25433 0.54153 -0.31111 -0.35125 -0.051738 
emily 0.082947 0.53852 0.2366 0.20481 0.14309 0.05842 0.35893 0.065424 0.080652 -0.70073 -0.3285 0.78983 -0.62448 -0.49359 -0.2579 -0.80836 0.09761 0.27974 -0.15703 -0.38676 -0.086315 0.1439 -0.32803 0.87078 -0.31729 -0.73313 -0.66284 -0.44551 -0.12955 -0.49718 -0.040262 0.42382 -0.27272 0.17937 0.68212 -0.31428 -0.21611 -0.13038 0.58317 0.55101 0.079218 -0.025344 0.3999 0.26642 -0.38434 0.5755 0.51223 -0.24782 -0.40849 0.19353 
wolves 0.63849 0.22334 -0.36123 -0.154 0.10849 -0.1068 -0.040642 0.47804 0.32493 -0.14885 -0.67098 0.48318 -0.31954 0.29195 -0.53236 -1.0494 0.20218 0.092272 -0.49584 -0.76208 -0.044286 0.20335 0.046245 0.57313 -0.17613 0.067437 -0.89514 -0.40762 -0.21102 -0.067098 -0.53515 0.21939 0.43467 0.22247 -0.1888 -0.058543 -0.11431 -0.4142 0.20103 1.0247 0.14295 -0.38559 0.77753 -0.25028 0.62468 0.52727 0.84795 -0.31222 -0.56524 -0.29148 
yann 0.70426 -0.74689 0.40129 -0.20038 -0.3496 0.055314 0.68372 0.78511 0.38313 0.14725 0.12073 -0.38754 -0.34157 -0.45527 -0.025117 -1.1872 0.66452 -0.15414 0.76833 -0.11255 0.15605 -0.3596 -0.74274 -0.23963 0.18347 -0.46377 -0.29091 -0.40373 -0.81461 0.2841 -0.017862 0.97277 0.90812 -0.018859 0.50483 -0.23534 -0.038314 -0.20824 -0.52286 -0.074713 -0.30305 -0.4471 0.17238 0.16667 -0.2024 -0.27525 0.022177 -0.092506 -0.16138 -1.2228 
Yann 0.72467 -0.76659 0.54271 -0.21275 0.046915 0.11792 0.37685 0.93885 -0.047636 0.057707 -0.16748 -0.39151 -0.65174 -0.56901 -0.058106 -1.1302 0.30707 0.17911 0.71317 -0.165 0.076196 -0.67567 -0.55661 0.12179 0.31149 0.028096 -0.1634 -0.48003 -0.42893 0.62312 -0.17261 0.7007 0.78969 -0.16571 0.62044 -0.21756 -0.32545 -0.8064 -0.55567 0.084059 -0.55187 -0.59524 -0.10076 -0.10774 -0.20516 -0.14023 0.11227 0.011985 -0.092871 -0.8239 
sumit 0.59632 -0.74712 0.52584 -0.15477 -0.222 0.27306 0.37184 0.96301 -0.16217 -0.35968 -0.13118 -0.5684 -0.15056 -0.51794 -0.37054 -1.0825 0.36078 -0.37758 0.75597 -0.3337 0.29667 -0.30358 -0.82815 -0.10926 0.41294 -0.47518 -0.59241 -0.22158 -0.24855 0.80285 0.34521 0.4803 0.80391 0.144 0.6573 -0.3489 -0.025517 -0.48822 -0.64264 -0.38038 -0.13205 -0.58718 0.25136 -0.078418 -0.3993 -0.29481 0.038233 -0.067944 -0.16159 -0.84905 
Sumit 0.59014 -0.88244 0.41195 0.22486 -0.032026 0.27792 0.41377 0.75141 -0.00045758 -0.26255 -0.092275 -0.60491 0.034035 -0.58259 -0.37743 -1.0192 0.22782 -0.27607 0.70548 -0.34755 0.37594 -0.70125 -0.60476 0.10356 0.10249 -0.24902 -0.27356 -0.49433 -0.0046565 0.44452 0.11635 0.89577 0.87578 -0.11807 0.70313 0.097101 -0.011091 -0.61974 -0.098961 -0.13587 -0.25081 -0.81095 -0.20376 -0.10393 -0.14468 -0.18267 0.23713 0.010461 -0.043614 -0.84241 
tired 0.37581 -0.5314 0.4392 -0.14243 -0.20482 0.13452 0.54441 0.48835 0.2951 -0.59943 -0.005425 -0.2712 -0.39858 -0.84829 0.16567 -0.52205 0.56168 -0.12017 0.95734 -0.59082 0.099919 -0.37277 -0.50803 -0.35619 0.16957 -0.14679 -0.7134 -0.44778 0.076535 0.19801 0.15437 0.89941 0.93221 -0.02894 0.38721 -0.0036458 -0.40871 -0.37257 -0.67232 -0.03205 -0.16084 -0.42099 0.31687 -0.36963 -0.22605 -0.30771 0.117 0.029247 0.12331 -0.80186 
jessica 0.14115 0.57187 0.25449 0.18281 -0.0073259 0.14203 0.31731 -0.050482 0.071745 -0.78326 -0.35943 0.75002 -0.65442 -0.39853 -0.3333 -0.7308 -0.053148 0.23539 -0.24976 -0.45649 0.044096 0.26198 -0.27722 0.95831 -0.24581 -0.67773 -0.80865 -0.32538 -0.0039927 -0.4078 -0.04235 0.38367 -0.26141 -0.13135 0.71269 -0.37245 -0.30715 -0.27677 0.46969 0.50064 0.093315 -0.084865 0.4212 0.32148 -0.24405 0.48531 0.50876 -0.14806 -0.28158 0.17209 
received 0.71324 0.25482 0.84415 0.22427 -0.052574 0.042253 0.19768 0.030917 0.28633 0.39156 -0.099126 0.90055 -0.039797 -0.14562 -0.1042 -0.052344 0.097162 -0.71072 -0.71675 -0.59866 0.3739 0.00965 -0.33534 0.57307 -0.71946 -0.87763 0.033025 -0.10818 -0.50152 0.69473 0.10993 -0.07794 0.33589 -0.81611 -0.14733 0.21307 0.46536 -0.11519 -0.67833 -0.33577 -0.12623 0.32332 0.42055 -0.073666 0.085672 -0.2093 -0.047517 -0.19951 -0.16392 0.082858 
maybe 0.038825 0.093073 0.17611 -0.11308 -0.29377 -0.4035 0.28222 0.16665 -0.42664 0.10279 -0.3274 -0.16998 -0.19928 -0.53753 0.7377 0.066356 0.28503 0.11081 0.36078 -0.84243 0.83392 0.21869 -0.40367 0.065623 -0.45958 -0.6768 -0.28065 0.61595 -0.17533 -0.37095 0.165 0.95046 0.18069 -0.13835 -0.50823 0.31415 -0.26735 0.11746 0.25549 0.3617 0.47298 -0.16135 0.53013 -0.038372 0.4376 -0.18264 -0.51973 -0.083212 -1.1093 0.29245 
pajamas 0.61887 -0.64619 0.79364 0.10106 0.0051176 -0.010353 0.67888 1.1507 0.61353 -0.78006 -0.26285 0.11432 0.031149 0.02487 0.19154 -0.65991 0.44601 -0.17041 1.0531 -0.8077 -0.13118 -0.61666 -0.74065 -0.31255 -0.49516 -0.4945 -0.91084 -0.62594 -0.025879 0.21112 -0.21735 0.38066 0.39349 0.066192 0.34371 0.18671 -0.60616 -0.34345 -1.247 0.21882 -0.21399 -0.057634 0.25077 -0.12543 -0.39523 -1.0906 0.1414 0.14391 -0.13408 -1.3663 
w,w 0.051953 0.52837 0.16393 -0.36262 -0.1663 -0.59182 -0.045368 -0.0030947 -0.16698 0.22412 -0.1182 0.36008 -0.0041117 -0.16236 -0.097495 -0.36423 0.094117 0.034668 0.29779 -0.32235 0.27171 -0.34437 -0.24067 0.36936 -0.23581 -0.19975 -0.33059 -0.1811 -0.25081 0.010229 -0.067074 0.20748 -0.012018 0.093649 -0.24737 -0.30208 -0.59714 0.15334 0.24482 -0.52881 -0.18306 -0.097917 0.41473 -0.26066 -0.61943 -0.40549 0.32914 0.14136 0.15608 -0.17341 
s,w 0.075701 0.51388 0.28119 -0.33511 -0.21529 -0.61989 0.043928 -0.15092 -0.10039 0.25764 -0.12843 0.39441 -0.001862 -0.10975 -0.20185 -0.36807 0.23858 0.11314 0.39577 -0.3427 0.10729 -0.31855 -0.3014 0.41141 -0.11314 -0.18546 -0.35453 0.028352 -0.37284 0.017875 -0.062621 0.098618 -0.00099852 0.13103 -0.13964 -0.27575 -0.60614 0.1539 0.14044 -0.44878 -0.1613 -0.085142 0.4197 -0.25506 -0.62216 -0.35625 0.43688 0.1318 0.076761 -0.24973 
n,e 0.029038 0.42992 0.18473 -0.36177 -0.28091 -0.74184 -0.03132 -0.18347 -0.18203 0.053391 -0.23563 0.38504 0.11477 -0.11159 -0.20793 -0.38925 0.057118 -0.23421 0.25101 -0.30601 0.19603 -0.33197 -0.42781 0.37279 -0.27352 -0.19847 -0.29122 -0.035358 -0.065763 -0.059611 -0.052436 0.1598 -0.052187 0.088398 -0.27292 -0.17455 -0.62976 0.23317 0.16254 -0.48362 -0.41007 -0.26198 0.33385 -0.16184 -0.60864 -0.39885 0.26725 0.12956 -0.0050797 -0.32687 
s,s 0.13027 0.54646 0.32534 -0.19884 -0.25351 -0.71268 0.10222 0.076072 -0.15686 0.155 -0.022768 0.2722 -0.0041344 -0.19025 -0.052163 -0.1933 0.0045735 -0.019202 0.20138 -0.46781 0.15797 -0.28499 -0.08496 0.35302 -0.18089 -0.25383 -0.52215 0.11999 -0.13066 -0.10557 0.10138 0.30173 -0.082624 0.11275 -0.28538 -0.23596 -0.59328 0.22508 0.30741 -0.40001 -0.36037 -0.10856 0.34457 -0.31772 -0.53526 -0.63721 0.17102 0.20521 0.023327 -0.23711 
w,n 0.10258 0.40457 0.13631 -0.40569 -0.12758 -0.58366 0.034391 -0.082055 -0.21337 0.21077 -0.27834 0.29774 -0.027138 -0.17996 -0.23459 -0.43885 0.15054 0.037919 0.31124 -0.31664 0.057756 -0.41498 -0.14374 0.34088 -0.27419 -0.31082 -0.40094 0.036761 -0.087838 -0.03031 -0.025469 0.24029 -0.10967 -0.089716 -0.25239 -0.3051 -0.64101 0.23218 0.26761 -0.56653 -0.29442 -0.14206 0.55079 -0.2709 -0.45898 -0.4503 0.39747 0.11983 0.035087 -0.19215 
n,n 0.031782 0.61539 0.36955 -0.34272 -0.14314 -0.61427 0.13758 0.033089 -0.18451 0.15361 -0.20518 0.29318 0.13306 -0.18264 -0.16812 -0.44643 0.16468 -0.036589 0.18517 -0.31994 0.20435 -0.28187 -0.21512 0.32974 -0.18043 -0.25935 -0.56707 0.043111 -0.070111 0.071362 0.077967 0.18811 -0.1431 0.070849 -0.3702 -0.18888 -0.72134 0.18294 0.17674 -0.56681 -0.14701 -0.19511 0.37533 -0.19014 -0.61307 -0.39456 0.22786 0.18621 0.17381 -0.21293 
e,s 0.1766 0.55034 0.35036 -0.27092 -0.25221 -0.59749 -0.11449 -0.079115 -0.19199 0.21575 -0.11533 0.30417 0.086826 -0.24284 -0.04168 -0.31432 0.16006 -0.0060457 0.36176 -0.44353 0.26083 -0.34007 -0.32022 0.41206 -0.13286 -0.19724 -0.27656 0.020421 -0.28845 -0.038093 0.032157 0.12852 -0.0070091 0.15246 -0.19849 -0.16493 -0.65069 0.17243 0.31543 -0.38342 -0.25287 -0.14139 0.47835 -0.24504 -0.53814 -0.31882 0.13554 0.092259 0.092488 -0.21764 
s,e -0.054808 0.54331 0.26181 -0.33697 -0.29562 -0.64339 0.16903 -0.030235 -0.081556 0.14256 -0.065241 0.29364 0.072962 -0.1102 -0.13075 -0.45417 0.080972 -0.012369 0.26288 -0.4798 -0.03275 -0.26491 -0.45971 0.49843 -0.2138 -0.2083 -0.38961 0.10295 -0.30776 -0.074738 -0.11692 0.16248 0.13954 0.075693 -0.28507 -0.37809 -0.64671 0.23422 0.13665 -0.59471 -0.17718 -0.25736 0.38607 -0.20094 -0.56189 -0.4338 0.33542 0.16321 0.018317 -0.10706 
n,w 0.041958 0.38547 0.29352 -0.30331 -0.27158 -0.77455 -0.031259 -0.15969 -0.20503 0.17319 -0.21871 0.24879 0.012686 -0.33681 -0.20349 -0.29455 0.13561 -0.11175 0.29968 -0.36426 0.18874 -0.30794 -0.31922 0.37459 0.013685 -0.29572 -0.39549 -0.019687 -0.21009 -0.018741 0.045646 0.08145 -0.19741 0.15502 -0.29526 -0.35456 -0.47706 0.10702 0.14609 -0.52138 -0.14357 -0.20807 0.34018 -0.32163 -0.5448 -0.4693 0.36561 0.11282 0.030574 -0.27713 
w,s -0.042729 0.43301 0.22576 -0.28024 -0.16077 -0.57223 -0.032228 -0.058201 -0.040827 0.1747 -0.19616 0.39379 0.065044 -0.18657 -0.21471 -0.39807 0.26201 -0.031692 0.33547 -0.4229 0.072596 -0.31843 -0.21964 0.47685 -0.19607 -0.23212 -0.34232 0.062975 -0.15506 -0.011602 -0.043558 0.136 -0.047239 0.073707 -0.27878 -0.19357 -0.67816 0.19968 0.13323 -0.5755 -0.2135 -0.22187 0.49835 -0.29366 -0.38926 -0.31293 0.23906 0.28163 -0.072452 -0.22764 
e,e -0.083654 0.54449 0.34916 -0.32412 -0.21801 -0.6261 0.074184 -0.15785 -0.21281 0.20781 -0.11397 0.38347 0.12558 -0.24336 -0.099513 -0.36591 0.17937 -0.0064062 0.24292 -0.47877 0.17898 -0.30698 -0.18602 0.51176 -0.17534 -0.27922 -0.30157 0.1854 -0.30918 0.13518 0.0347 0.19238 -0.10257 0.05709 -0.22828 -0.27125 -0.56851 -0.0042735 0.18227 -0.42391 -0.31386 -0.24153 0.25513 -0.34333 -0.51398 -0.36281 0.31867 0.13698 0.14986 -0.21134 
e,n 0.054497 0.5056 0.1522 -0.35268 -0.27727 -0.69592 0.014557 -0.14187 -0.14319 0.12446 -0.16705 0.42083 0.089368 -0.05613 -0.18974 -0.3405 0.17685 -0.0356 0.27326 -0.40245 0.15023 -0.30107 -0.11421 0.33105 -0.16453 -0.37982 -0.39466 0.039173 -0.23392 0.088194 -0.052776 0.29231 -0.078397 -0.012391 -0.26813 -0.077887 -0.6602 0.18837 0.18863 -0.44422 -0.28862 -0.12161 0.4071 -0.30682 -0.60425 -0.3536 0.26956 0.07816 0.066809 -0.17106 
two 0.082949 0.26201 0.4595 -0.39537 -0.68521 0.059577 0.12973 0.41843 -1.0239 -0.10262 0.68335 0.035525 -0.21409 -0.10295 -0.73941 0.090119 -0.20233 -0.6812 0.36208 -0.82604 -0.45321 -0.41251 0.20874 0.86215 -0.31332 0.10251 -0.5067 0.042271 -0.45636 -0.12184 0.17059 0.082964 -0.25838 -0.44511 0.28223 0.80218 -0.83053 0.14405 -0.37091 -0.17435 0.56055 -0.050248 -0.048381 -0.3486 0.18003 0.22033 0.031959 -0.26954 -0.45078 -0.088546 
apple,milk 0.093357 0.23216 1.1239 -0.8429 -0.35182 0.054396 0.79518 0.83455 0.68345 -0.15405 0.41164 0.48799 -0.59845 0.17724 -0.45743 -0.89622 0.082641 0.31843 0.12493 0.20197 0.23186 -0.21926 -0.038272 -0.11408 -0.99217 0.11465 -0.47924 0.38764 -0.091837 -0.75331 0.29401 0.15371 -0.30507 0.093766 0.29804 1.1223 0.035372 0.28069 -0.41973 0.14729 -0.25717 0.31903 -0.070316 0.16854 -0.21531 0.77583 -0.22627 -0.052442 0.12817 0.077333 
football,milk 0.15742 0.12372 1.302 -0.95537 -0.073987 0.11067 0.71884 0.89822 0.60224 -0.068113 0.36559 0.49577 -0.27418 0.04469 -0.39735 -0.44587 -0.30428 0.33161 0.31607 0.11927 0.014469 -0.13895 -0.066037 0.13232 -1.1788 -0.10949 -0.33232 0.39557 -0.093701 -0.84278 0.41912 0.034309 -0.23892 0.16096 0.31271 0.907 -0.050849 0.11553 -0.17347 0.18568 -0.012738 0.36794 0.14345 0.18455 -0.029449 0.33639 -0.47508 0.085268 0.017061 -0.024258 
milk,apple 0.29629 0.23523 1.2688 -0.7267 -0.34956 0.020551 0.50483 0.71942 0.17891 -0.16405 0.18119 0.31514 -0.21396 -0.10669 -0.32387 -0.68287 -0.27338 0.25373 0.059735 0.0030565 0.01774 -0.13012 0.26684 0.25332 -1.1934 -0.18851 -0.42472 0.69887 -0.27315 -0.91075 0.6968 0.0038753 -0.23616 0.039147 0.24829 0.72794 -0.24243 0.35786 -0.24535 0.093085 -0.29881 0.3468 0.087764 -0.038399 -0.24701 0.15921 -0.2027 -0.19802 0.34021 -0.22331 
football,apple 0.11937 0.047573 1.2709 -0.61529 -0.1063 -0.018242 0.67235 0.94598 0.24908 -0.17983 0.20096 0.50805 -0.3075 -0.18303 -0.40067 -0.52954 0.011983 0.33657 0.31655 0.089105 0.016084 -0.19658 0.128 -0.068002 -1.0439 -0.25012 -0.30366 0.71568 -0.00094004 -0.84633 0.31703 -0.032535 -0.19789 -0.0066262 0.37947 0.63773 -0.28283 0.060937 -0.23311 -0.039232 -0.14092 0.023457 0.084165 -0.21416 -0.18715 0.21428 -0.40332 -0.018051 0.0085426 -0.052535 
apple,football 0.18317 0.20048 1.1369 -0.66751 -0.57565 0.075284 0.46522 0.71629 -0.061659 -0.1012 0.2241 0.24207 -0.33336 0.016336 -0.44188 -0.35312 0.15479 0.35203 -0.030728 -0.11929 0.33032 -0.18964 0.3228 0.0095168 -1.0169 -0.061661 -0.30107 0.46821 -0.14944 -0.87503 0.47153 -0.0065576 -0.5075 -0.054774 0.39205 0.76904 0.20098 -0.17684 -0.24474 0.09862 -0.4202 0.14457 0.17136 0.2404 -0.12702 0.047627 -0.18015 0.33061 0.2462 -0.053312 
milk,football 0.071754 -0.076421 1.1916 -0.77786 -0.44185 0.099532 0.51252 0.61586 0.30244 -0.18007 0.1336 0.32273 -0.25453 -0.33465 -0.56013 -0.41451 -0.23295 0.325 0.099168 0.039204 0.17554 -0.17377 0.17082 0.21306 -1.1132 -0.09395 -0.14939 0.42556 -0.35697 -0.81508 0.72189 0.043961 -0.46248 -0.032214 0.46507 0.60027 0.0016618 0.030095 -0.12208 -0.020066 -0.39329 0.15517 -0.049329 0.0945 -0.0098517 -0.046448 -0.2275 0.33133 0.080297 -0.13243 
three 0.28767 -0.22287 0.26016 -0.82452 -0.55452 -0.17819 0.36523 0.058013 -0.40575 0.1321 0.50542 0.25477 -0.56104 -0.12587 -0.81397 0.073632 -0.30682 -0.63161 0.035419 -0.3936 -0.45763 -0.043208 0.30119 0.53046 -0.20241 0.46815 -0.20996 0.10883 -0.1638 -0.082853 0.25131 0.21508 0.13556 -0.45152 0.45664 0.60236 -0.43639 0.15075 -0.05689 -0.1486 0.13392 -0.38877 -0.30768 -0.30895 0.53511 0.45273 0.25496 0.18833 -0.71113 0.088839 
apple,football,milk 0.017694 0.32325 1.3577 -0.90632 -0.4604 0.10638 0.80231 0.96015 0.36878 -0.18329 0.23521 0.34698 -0.41789 0.1567 -0.35189 -0.52028 -0.18236 0.54312 0.18096 0.07314 0.21456 -0.090557 0.13511 0.10036 -1.2811 -0.036009 -0.36303 0.57126 -0.14673 -1.191 0.57086 0.11895 -0.44833 0.0782 0.32894 1.0948 -0.06105 -0.016897 -0.17918 0.16073 -0.29602 0.38716 0.1383 0.27016 -0.15502 0.27601 -0.34241 0.25222 0.32534 -0.081628 
football,apple,milk 0.030307 0.16836 1.3462 -0.78767 -0.21748 0.011628 0.87769 0.99484 0.51544 -0.23243 0.26133 0.49851 -0.5216 0.04575 -0.43658 -0.74314 -0.028885 0.45324 0.29278 0.1415 0.082245 -0.22051 0.024432 -0.097483 -1.0983 -0.0742 -0.3746 0.68859 -0.051529 -0.96506 0.34712 0.086611 -0.24754 0.086122 0.33534 0.90986 -0.22613 0.20148 -0.23019 0.0023261 -0.17424 0.22333 -0.0031076 -0.058144 -0.21438 0.53351 -0.37664 -0.050075 0.15646 0.036749 
football,milk,apple 0.16523 0.17824 1.338 -0.87897 -0.23233 0.048659 0.67338 0.85342 0.41678 -0.14375 0.27836 0.39143 -0.2802 0.011657 -0.33942 -0.55035 -0.30483 0.34147 0.23256 0.066331 0.065108 -0.13256 0.085635 0.1628 -1.2236 -0.12483 -0.38608 0.54841 -0.16726 -0.94054 0.54123 0.042565 -0.24151 0.17581 0.2557 0.84667 -0.16484 0.22387 -0.18004 0.13952 -0.13824 0.33522 0.14355 0.058389 -0.11059 0.24255 -0.37821 -0.078685 0.21839 -0.11653 
apple,milk,football 0.0022778 0.05324 1.1902 -0.81745 -0.46839 0.060877 0.67018 0.71297 0.45513 -0.22091 0.23964 0.35948 -0.44064 -0.07772 -0.49594 -0.62466 -0.092539 0.37488 0.12725 0.11092 0.26341 -0.20396 0.08897 0.046434 -1.0829 0.036179 -0.29347 0.41774 -0.25468 -0.84929 0.54874 0.12547 -0.42425 0.086298 0.36865 0.82762 0.0049424 0.11879 -0.21922 0.04701 -0.35274 0.20478 -0.052678 0.10759 -0.083272 0.28073 -0.23704 0.14242 0.15797 -0.04161 
milk,apple,football 0.16525 0.27236 1.3295 -0.75156 -0.54233 0.07513 0.60019 0.78199 0.065411 -0.19355 0.15666 0.21654 -0.37161 0.035837 -0.40461 -0.52177 -0.085833 0.43744 0.014794 -0.092302 0.21257 -0.16868 0.3108 0.12963 -1.1777 -0.092227 -0.34841 0.65528 -0.2492 -1.0566 0.65126 0.017905 -0.43836 0.023717 0.33259 0.81267 -0.024488 0.093112 -0.16397 0.071305 -0.39628 0.30143 0.11853 0.15017 -0.18716 0.12534 -0.20065 0.13625 0.43798 -0.11808 
milk,football,apple -0.062727 0.10791 1.3792 -0.77031 -0.36144 0.028476 0.80477 0.93744 0.38498 -0.3046 0.073453 0.42378 -0.37836 -0.22063 -0.42627 -0.61817 -0.24166 0.52408 0.28251 0.15773 0.093013 -0.11955 0.15315 0.11343 -1.2515 -0.16095 -0.24882 0.76666 -0.21701 -1.161 0.65272 0.10866 -0.37007 -0.018057 0.41445 0.80747 -0.35984 0.081781 -0.12499 -0.056083 -0.33779 0.18195 -0.044034 -0.091289 -0.18411 0.13677 -0.33656 0.15869 0.20021 -0.14472 
